{"learner":{"attributes":{"scikit_learn":"{\"_estimator_type\": \"regressor\"}"},"feature_names":["temperature_2m_mean","precipitation_sum","wind_speed_10m_max","wind_direction_10m_dominant"],"feature_types":["float","float","float","float"],"gradient_booster":{"model":{"gbtree_model_param":{"num_parallel_tree":"1","num_trees":"100"},"iteration_indptr":[0,1,2,3,4,5,6,7,8,9,10,11,12,13,14,15,16,17,18,19,20,21,22,23,24,25,26,27,28,29,30,31,32,33,34,35,36,37,38,39,40,41,42,43,44,45,46,47,48,49,50,51,52,53,54,55,56,57,58,59,60,61,62,63,64,65,66,67,68,69,70,71,72,73,74,75,76,77,78,79,80,81,82,83,84,85,86,87,88,89,90,91,92,93,94,95,96,97,98,99,100],"tree_info":[0,0,0,0,0,0,0,0,0,0,0,0,0,0,0,0,0,0,0,0,0,0,0,0,0,0,0,0,0,0,0,0,0,0,0,0,0,0,0,0,0,0,0,0,0,0,0,0,0,0,0,0,0,0,0,0,0,0,0,0,0,0,0,0,0,0,0,0,0,0,0,0,0,0,0,0,0,0,0,0,0,0,0,0,0,0,0,0,0,0,0,0,0,0,0,0,0,0,0,0],"trees":[{"base_weights":[-0E0,1.56092005E1,-7.625999E0,3.383054E1,4.1551685E0,4.4681764E0,-1.2140169E1,6.4701225E1,3.1326565E1,1.468883E1,-1.082587E1,1.547983E1,-6.095127E0,-5.6428413E0,-1.6659338E1,2.0517614E1,3.3618164E1,3.63206E1,2.5742914E1,3.1879904E1,1.0430437E1,-1.4775115E0,-1.7376322E1,2.2727306E1,1.1263413E1,-1.1673805E1,-4.4647193E0,6.30936E0,-1.2042452E1,-1.379066E1,-1.9573172E1,5.012696E-1,1.1902032E1,2.5697071E1,3.7586903E1,3.3994034E1,2.003718E1,2.0926905E1,2.9908014E1,2.114752E1,5.943451E0,1.4323808E1,-3.886766E0,-7.307993E0,-1.9678705E1,2.5977448E1,1.3832802E1,1.3477763E1,4.762423E0,-7.279608E0,-1.589871E1,7.100586E0,-5.1896687E0,2.0750443E1,3.0395012E0,-8.810233E0,-1.3815716E1,-7.6407833E0,-1.7066772E1,-9.747524E0,-2.0892332E1,1.252448E1,5.3887873E0,1.1390256E1,2.1769044E0,1.1046949E1,6.9569697E0,1.0581353E1,5.24384E0,4.2946515E0,9.612385E0,4.769628E0,8.869923E0,3.430258E0,1.6989696E-1,4.967096E0,-9.316407E-1,-1.6929793E0,3.095215E0,2.9354494E0,-3.0328298E0,-8.613282E-1,-6.2275434E0,8.045066E0,-7.309571E-2,5.354297E0,1.0939943E0,1.5183905E0,4.8605347E0,7.576905E0,9.800815E-1,-6.657582E-1,-3.5410497E0,-5.4169765E0,-1.2602783E0,2.9273806E0,-2.8316407E0,-5.3709716E-1,-1.7594377E0,5.760183E0,1.520127E1,-8.821686E-1,2.4850585E0,2.5417566E-1,-3.1362643E0,-1.7309152E0,-4.2879305E0,-6.357336E-1,-3.0639126E0,-3.535852E0,-5.4675946E0,-4.040879E0,-2.0570452E0,-6.6960044E0,-4.5355806E0],"categories":[],"categories_nodes":[],"categories_segments":[],"categories_sizes":[],"default_left":[0,0,0,0,0,0,0,0,0,0,0,0,0,0,0,0,0,0,0,0,0,0,0,0,0,0,0,0,0,0,0,0,0,0,0,0,0,0,0,0,0,0,0,0,0,0,0,0,0,0,0,0,0,0,0,0,0,0,0,0,0,0,0,0,0,0,0,0,0,0,0,0,0,0,0,0,0,0,0,0,0,0,0,0,0,0,0,0,0,0,0,0,0,0,0,0,0,0,0,0,0,0,0,0,0,0,0,0,0,0,0,0,0,0,0],"id":0,"left_children":[1,3,5,7,9,11,13,15,17,19,21,23,25,27,29,-1,31,33,35,37,39,41,43,45,47,49,51,53,55,57,59,-1,-1,61,63,65,67,-1,69,71,73,75,77,79,81,83,85,87,89,91,93,95,97,99,101,103,105,107,109,111,113,-1,-1,-1,-1,-1,-1,-1,-1,-1,-1,-1,-1,-1,-1,-1,-1,-1,-1,-1,-1,-1,-1,-1,-1,-1,-1,-1,-1,-1,-1,-1,-1,-1,-1,-1,-1,-1,-1,-1,-1,-1,-1,-1,-1,-1,-1,-1,-1,-1,-1,-1,-1,-1,-1],"loss_changes":[4.878085E5,2.8057147E5,1.5035473E5,3.80915E4,1.306639E5,8.721761E4,5.8777844E4,2.0602188E3,1.2505531E4,3.5245766E4,2.0917031E4,1.0958945E4,3.4314648E3,6.3103273E4,9.610219E3,0E0,1.0944067E3,2.4242188E3,1.0194031E4,5.083789E3,1.8676488E4,5.461528E3,4.5155938E3,3.5143828E3,3.3043496E3,1.4808594E3,2.5353594E3,1.3536375E4,2.9561484E3,1.193807E4,7.3659375E3,0E0,0E0,2.974504E3,2.2988438E3,1.9887422E3,4.799496E3,0E0,2.6347656E3,4.6116367E3,8.17179E3,7.9094775E2,3.1519697E3,1.9664153E3,2.8985898E3,2.1415898E3,1.4889614E3,3.9072305E3,1.7870387E3,9.810874E2,1.0095674E3,8.832197E2,6.343882E2,1.484791E3,7.4252275E3,3.0730625E3,1.2426953E3,2.9610215E3,2.1711328E3,6.7156006E2,3.8994688E3,0E0,0E0,0E0,0E0,0E0,0E0,0E0,0E0,0E0,0E0,0E0,0E0,0E0,0E0,0E0,0E0,0E0,0E0,0E0,0E0,0E0,0E0,0E0,0E0,0E0,0E0,0E0,0E0,0E0,0E0,0E0,0E0,0E0,0E0,0E0,0E0,0E0,0E0,0E0,0E0,0E0,0E0,0E0,0E0,0E0,0E0,0E0,0E0,0E0,0E0,0E0,0E0,0E0,0E0],"parents":[2147483647,0,0,1,1,2,2,3,3,4,4,5,5,6,6,7,7,8,8,9,9,10,10,11,11,12,12,13,13,14,14,16,16,17,17,18,18,19,19,20,20,21,21,22,22,23,23,24,24,25,25,26,26,27,27,28,28,29,29,30,30,33,33,34,34,35,35,36,36,38,38,39,39,40,40,41,41,42,42,43,43,44,44,45,45,46,46,47,47,48,48,49,49,50,50,51,51,52,52,53,53,54,54,55,55,56,56,57,57,58,58,59,59,60,60],"right_children":[2,4,6,8,10,12,14,16,18,20,22,24,26,28,30,-1,32,34,36,38,40,42,44,46,48,50,52,54,56,58,60,-1,-1,62,64,66,68,-1,70,72,74,76,78,80,82,84,86,88,90,92,94,96,98,100,102,104,106,108,110,112,114,-1,-1,-1,-1,-1,-1,-1,-1,-1,-1,-1,-1,-1,-1,-1,-1,-1,-1,-1,-1,-1,-1,-1,-1,-1,-1,-1,-1,-1,-1,-1,-1,-1,-1,-1,-1,-1,-1,-1,-1,-1,-1,-1,-1,-1,-1,-1,-1,-1,-1,-1,-1,-1,-1],"split_conditions":[6.9307513E0,2.0844853E2,1.5825E2,-2.7055833E0,2.433664E1,1.609025E1,1.9191748E1,2.6544964E1,1.4006593E2,1.27279215E1,2.8673721E1,1.0714084E1,7.93521E1,1.4888165E1,2.5277023E1,2.0517614E1,2.897944E1,2.1914925E1,2.361083E0,-2.2889168E0,1.1631666E0,1.4650024E-1,2.0319166E0,1.4295021E2,1.472029E2,1.1808878E1,1.6598585E1,1.1734564E1,1.3551501E1,1.3704834E1,2.1153474E2,5.012696E-1,1.1902032E1,1.4650024E-1,7.5999994E0,2.5376808E1,1.0587917E1,2.0926905E1,2.3552771E2,3.3179843E2,1.9130875E1,2.7059933E1,3.3262244E2,2.763761E2,2.532907E2,8.7E0,2.6729847E1,9.1576515E1,1.105275E1,2.0550665E1,2E0,3.1E0,1.1367109E1,1.4777751E1,3.00766E2,1.711733E1,1.7744713E2,2.1194187E1,2.647761E2,1.5923584E1,3.0872525E2,1.252448E1,5.3887873E0,1.1390256E1,2.1769044E0,1.1046949E1,6.9569697E0,1.0581353E1,5.24384E0,4.2946515E0,9.612385E0,4.769628E0,8.869923E0,3.430258E0,1.6989696E-1,4.967096E0,-9.316407E-1,-1.6929793E0,3.095215E0,2.9354494E0,-3.0328298E0,-8.613282E-1,-6.2275434E0,8.045066E0,-7.309571E-2,5.354297E0,1.0939943E0,1.5183905E0,4.8605347E0,7.576905E0,9.800815E-1,-6.657582E-1,-3.5410497E0,-5.4169765E0,-1.2602783E0,2.9273806E0,-2.8316407E0,-5.3709716E-1,-1.7594377E0,5.760183E0,1.520127E1,-8.821686E-1,2.4850585E0,2.5417566E-1,-3.1362643E0,-1.7309152E0,-4.2879305E0,-6.357336E-1,-3.0639126E0,-3.535852E0,-5.4675946E0,-4.040879E0,-2.0570452E0,-6.6960044E0,-4.5355806E0],"split_indices":[0,3,3,0,2,0,2,2,3,2,2,0,3,0,2,0,2,3,0,0,0,0,0,3,3,2,0,2,2,0,3,0,0,0,1,2,2,0,3,3,2,2,3,3,3,1,2,3,0,0,1,1,2,0,3,0,3,2,3,0,3,0,0,0,0,0,0,0,0,0,0,0,0,0,0,0,0,0,0,0,0,0,0,0,0,0,0,0,0,0,0,0,0,0,0,0,0,0,0,0,0,0,0,0,0,0,0,0,0,0,0,0,0,0,0],"split_type":[0,0,0,0,0,0,0,0,0,0,0,0,0,0,0,0,0,0,0,0,0,0,0,0,0,0,0,0,0,0,0,0,0,0,0,0,0,0,0,0,0,0,0,0,0,0,0,0,0,0,0,0,0,0,0,0,0,0,0,0,0,0,0,0,0,0,0,0,0,0,0,0,0,0,0,0,0,0,0,0,0,0,0,0,0,0,0,0,0,0,0,0,0,0,0,0,0,0,0,0,0,0,0,0,0,0,0,0,0,0,0,0,0,0,0],"sum_hessian":[4.096E3,1.344E3,2.752E3,5.18E2,8.26E2,7.48E2,2.004E3,3.7E1,4.81E2,4.85E2,3.41E2,3.66E2,3.82E2,8.23E2,1.181E3,3.2E1,5E0,2.51E2,2.3E2,9.5E1,3.9E2,1.41E2,2E2,1.33E2,2.33E2,8.5E1,2.97E2,2.87E2,5.36E2,5.98E2,5.83E2,1E0,4E0,2.9E1,2.22E2,9.2E1,1.38E2,3E0,9.2E1,1.14E2,2.76E2,1.8E1,1.23E2,3.8E1,1.62E2,9.6E1,3.7E1,1.73E2,6E1,4.3E1,4.2E1,1.7E1,2.8E2,5.2E1,2.35E2,1.92E2,3.44E2,2.09E2,3.89E2,7E1,5.13E2,8E0,2.1E1,2.19E2,3E0,7.1E1,2.1E1,1.8E1,1.2E2,1.2E1,8E1,7.2E1,4.2E1,1.36E2,1.4E2,1.6E1,2E0,1.1E2,1.3E1,5E0,3.3E1,1E1,1.52E2,9.3E1,3E0,2.6E1,1.1E1,4.3E1,1.3E2,3E0,5.7E1,2.1E1,2.2E1,3.5E1,7E0,1.5E1,2E0,4.7E1,2.33E2,5.1E1,1E0,1.1E2,1.25E2,2.8E1,1.64E2,2E1,3.24E2,6.7E1,1.42E2,7.2E1,3.17E2,2.9E1,4.1E1,4.09E2,1.04E2],"tree_param":{"num_deleted":"0","num_feature":"4","num_nodes":"115","size_leaf_vector":"1"}},{"base_weights":[3.6235426E-2,1.19884615E1,-4.918773E0,2.4918818E1,3.6407385E0,3.3204203E0,-8.358769E0,4.6157192E1,2.300182E1,1.2842662E1,-5.372064E0,1.165398E1,-3.9787261E0,-3.2444851E0,-1.1538416E1,2.0097649E1,4.0157135E1,2.575813E1,1.8261217E1,2.268139E1,9.694792E0,-1.1063318E0,-1.3332802E1,1.6024914E1,8.471147E0,1.9151547E0,-5.1254864E0,5.289146E0,-8.591164E0,-1.2328118E1,-1.2582986E0,4.157933E1,3.7648363E0,2.9966478E1,2.3015959E1,2.2720497E1,1.2162988E1,1.6218353E1,2.0917099E1,6.122105E0,1.7788052E1,7.3408046E0,-4.943913E0,-1.3950555E1,4.7775865E0,2.1337454E1,9.2237015E0,9.120622E0,-8.706951E0,5.413982E0,-4.5055003E0,-6.4252853E0,-2.3027565E0,1.3778351E1,1.5802028E0,-6.75119E0,-1.0410759E1,-1.0628143E1,-1.5024462E1,3.3498466E1,-4.105817E0,9.712093E0,1.4588033E1,8.1862135E0,1.2621612E1,9.395923E0,6.059507E0,7.8537164E0,4.255528E0,3.1218174E0,8.021933E0,5.662854E0,1.220118E1,2.560739E0,-2.2972113E-1,7.183639E0,4.0615163E0,3.6080291E0,1.3539906E0,-8.159721E-1,-3.0732524E0,1.7344123E-1,-4.445198E0,-2.4938061E0,3.0384982E0,8.294962E0,4.371314E0,-4.240654E0,3.0171952E0,3.293911E0,1.3126508E0,-3.9567895E0,1.3962525E0,3.921563E0,5.932026E-1,-2.173801E0,5.341853E-1,-3.1127923E0,-1.6033636E0,-2.37164E-1,-2.0741546E0,4.962885E0,1.2689842E0,-1.544448E0,1.523183E0,-2.5545254E0,-7.5805396E-1,-3.274353E0,-4.3895572E-1,-1.1308774E0,-3.7827091E0,-2.6184363E0,-4.9211197E0,1.0762135E1,2.8869874E0,9.207637E-2,-2.1602616E0],"categories":[],"categories_nodes":[],"categories_segments":[],"categories_sizes":[],"default_left":[0,0,0,0,0,0,0,0,0,0,0,0,0,0,0,0,0,0,0,0,0,0,0,0,0,0,0,0,0,0,0,0,0,0,0,0,0,0,0,0,0,0,0,0,0,0,0,0,0,0,0,0,0,0,0,0,0,0,0,0,0,0,0,0,0,0,0,0,0,0,0,0,0,0,0,0,0,0,0,0,0,0,0,0,0,0,0,0,0,0,0,0,0,0,0,0,0,0,0,0,0,0,0,0,0,0,0,0,0,0,0,0,0,0,0,0,0],"id":1,"left_children":[1,3,5,7,9,11,13,15,17,19,21,23,25,27,29,-1,31,33,35,37,39,41,43,45,47,49,51,53,55,57,59,61,-1,63,65,67,69,-1,71,73,75,77,79,81,83,85,87,89,91,93,95,97,99,101,103,105,107,109,111,113,115,-1,-1,-1,-1,-1,-1,-1,-1,-1,-1,-1,-1,-1,-1,-1,-1,-1,-1,-1,-1,-1,-1,-1,-1,-1,-1,-1,-1,-1,-1,-1,-1,-1,-1,-1,-1,-1,-1,-1,-1,-1,-1,-1,-1,-1,-1,-1,-1,-1,-1,-1,-1,-1,-1,-1,-1],"loss_changes":[2.4269719E5,1.2954405E5,8.2136836E4,1.8114531E4,6.0694566E4,5.199337E4,3.3201312E4,2.060211E3,5.2005156E3,1.0991625E4,1.254985E4,5.415121E3,3.0918594E3,3.586231E4,1.0213469E4,0E0,7.346328E2,2.4491875E3,4.1562266E3,3.685789E3,7.8715527E3,7.881102E3,1.5098711E3,5.8371875E3,2.6789316E3,1.7092499E3,1.3867549E3,9.5184795E3,1.5468047E3,5.2032656E3,9.143855E3,3.720703E2,0E0,2.2248906E3,3.3214531E3,2.3740234E3,1.540083E3,0E0,2.6187812E3,3.2151855E3,1.8738418E3,9.5268555E2,1.9407014E3,1.5826973E3,4.3440686E2,3.5693633E3,1.6026099E3,1.9368086E3,6.00388E2,1.2637063E3,4.7803473E2,1.0589287E3,8.4523285E2,2.3585957E3,5.0144097E3,1.7891494E3,1.0702988E3,9.747984E3,3.764789E3,5.175293E1,1.1631118E3,0E0,0E0,0E0,0E0,0E0,0E0,0E0,0E0,0E0,0E0,0E0,0E0,0E0,0E0,0E0,0E0,0E0,0E0,0E0,0E0,0E0,0E0,0E0,0E0,0E0,0E0,0E0,0E0,0E0,0E0,0E0,0E0,0E0,0E0,0E0,0E0,0E0,0E0,0E0,0E0,0E0,0E0,0E0,0E0,0E0,0E0,0E0,0E0,0E0,0E0,0E0,0E0,0E0,0E0,0E0,0E0],"parents":[2147483647,0,0,1,1,2,2,3,3,4,4,5,5,6,6,7,7,8,8,9,9,10,10,11,11,12,12,13,13,14,14,16,16,17,17,18,18,19,19,20,20,21,21,22,22,23,23,24,24,25,25,26,26,27,27,28,28,29,29,30,30,31,31,33,33,34,34,35,35,36,36,38,38,39,39,40,40,41,41,42,42,43,43,44,44,45,45,46,46,47,47,48,48,49,49,50,50,51,51,52,52,53,53,54,54,55,55,56,56,57,57,58,58,59,59,60,60],"right_children":[2,4,6,8,10,12,14,16,18,20,22,24,26,28,30,-1,32,34,36,38,40,42,44,46,48,50,52,54,56,58,60,62,-1,64,66,68,70,-1,72,74,76,78,80,82,84,86,88,90,92,94,96,98,100,102,104,106,108,110,112,114,116,-1,-1,-1,-1,-1,-1,-1,-1,-1,-1,-1,-1,-1,-1,-1,-1,-1,-1,-1,-1,-1,-1,-1,-1,-1,-1,-1,-1,-1,-1,-1,-1,-1,-1,-1,-1,-1,-1,-1,-1,-1,-1,-1,-1,-1,-1,-1,-1,-1,-1,-1,-1,-1,-1,-1,-1],"split_conditions":[6.05275E0,2.0844853E2,1.658204E2,-2.7055833E0,2.2104116E1,1.5168251E1,1.886139E1,1.0495713E1,1.4482619E2,1.27279215E1,3.0962095E1,1.0169416E1,1.684025E1,1.5284E1,3.3423868E2,2.0097649E1,1.658204E2,1.4512064E1,1.6595179E1,-2.2889168E0,3.2806302E2,1.2964998E0,3.285371E2,2.0799152E1,1.0600001E1,1E-1,1E-1,1.30447235E1,1.4654254E1,2.7059933E1,7.0932503E0,1.3144426E2,3.7648363E0,1.3479583E1,-3.8891664E-1,3.854833E0,1.9583624E2,1.6218353E1,5.625666E0,1.5E0,5.7566667E-1,-7.055834E-1,4.98075E0,2.532907E2,-5.830583E0,8.037E0,2.103152E1,1.4780428E2,2.2000002E1,1.2904882E1,1.6381918E1,7.93521E1,1.5033334E2,5E-1,2.8618106E2,5E-1,2.5944414E1,1.0425667E1,2.6254376E2,3.5075296E2,1.3023583E1,9.712093E0,1.4588033E1,8.1862135E0,1.2621612E1,9.395923E0,6.059507E0,7.8537164E0,4.255528E0,3.1218174E0,8.021933E0,5.662854E0,1.220118E1,2.560739E0,-2.2972113E-1,7.183639E0,4.0615163E0,3.6080291E0,1.3539906E0,-8.159721E-1,-3.0732524E0,1.7344123E-1,-4.445198E0,-2.4938061E0,3.0384982E0,8.294962E0,4.371314E0,-4.240654E0,3.0171952E0,3.293911E0,1.3126508E0,-3.9567895E0,1.3962525E0,3.921563E0,5.932026E-1,-2.173801E0,5.341853E-1,-3.1127923E0,-1.6033636E0,-2.37164E-1,-2.0741546E0,4.962885E0,1.2689842E0,-1.544448E0,1.523183E0,-2.5545254E0,-7.5805396E-1,-3.274353E0,-4.3895572E-1,-1.1308774E0,-3.7827091E0,-2.6184363E0,-4.9211197E0,1.0762135E1,2.8869874E0,9.207637E-2,-2.1602616E0],"split_indices":[0,3,3,0,2,0,2,2,3,2,2,0,0,0,3,0,3,2,2,0,3,0,3,2,1,1,1,2,2,2,0,3,0,2,0,0,3,0,0,1,0,0,0,3,0,0,2,3,1,2,0,3,3,1,3,1,0,0,3,3,0,0,0,0,0,0,0,0,0,0,0,0,0,0,0,0,0,0,0,0,0,0,0,0,0,0,0,0,0,0,0,0,0,0,0,0,0,0,0,0,0,0,0,0,0,0,0,0,0,0,0,0,0,0,0,0,0],"split_type":[0,0,0,0,0,0,0,0,0,0,0,0,0,0,0,0,0,0,0,0,0,0,0,0,0,0,0,0,0,0,0,0,0,0,0,0,0,0,0,0,0,0,0,0,0,0,0,0,0,0,0,0,0,0,0,0,0,0,0,0,0,0,0,0,0,0,0,0,0,0,0,0,0,0,0,0,0,0,0,0,0,0,0,0,0,0,0,0,0,0,0,0,0,0,0,0,0,0,0,0,0,0,0,0,0,0,0,0,0,0,0,0,0,0,0,0,0],"sum_hessian":[4.096E3,1.2E3,2.896E3,4.7E2,7.3E2,8.53E2,2.043E3,3.7E1,4.33E2,3.61E2,3.69E2,3.98E2,4.55E2,7.84E2,1.259E3,6E0,3.1E1,2.71E2,1.62E2,8.6E1,2.75E2,2.41E2,1.28E2,1.66E2,2.32E2,7.4E1,3.81E2,3.02E2,4.82E2,1.169E3,9E1,2.9E1,2E0,1.03E2,1.68E2,9.2E1,7E1,3E0,8.3E1,1.92E2,8.3E1,7.5E1,1.66E2,1.24E2,4E0,9.2E1,7.4E1,2.24E2,8E0,4.8E1,2.6E1,2.6E2,1.21E2,9.1E1,2.11E2,2.42E2,2.4E2,7.2E2,4.49E2,6E0,8.4E1,1.5E1,1.4E1,8.7E1,1.6E1,4E1,1.28E2,6.4E1,2.8E1,6.4E1,6E0,7.7E1,6E0,1.42E2,5E1,3.2E1,5.1E1,2.7E1,4.8E1,1.18E2,4.8E1,7E0,1.17E2,1E0,3E0,4.6E1,4.6E1,2E0,7.2E1,1.6E2,6.4E1,6E0,2E0,1.4E1,3.4E1,1.8E1,8E0,5.4E1,2.06E2,9.2E1,2.9E1,7E1,2.1E1,7.2E1,1.39E2,1.7E2,7.2E1,2.27E2,1.3E1,1.62E2,5.58E2,8.2E1,3.67E2,5E0,1E0,3.5E1,4.9E1],"tree_param":{"num_deleted":"0","num_feature":"4","num_nodes":"117","size_leaf_vector":"1"}},{"base_weights":[6.44989E-2,8.519053E0,-3.440501E0,1.8776396E1,3.1983097E0,2.8218784E0,-5.7128983E0,3.3545677E1,1.7351658E1,1.0218973E1,-2.5869682E0,8.950565E0,-2.527151E0,-2.9211557E0,-8.636303E0,4.760877E1,2.5116398E1,2.1122337E1,1.5051039E1,1.94501E1,8.065876E0,1.2881104E0,-8.242665E0,3.0929113E1,8.490677E0,-5.9195356E0,-1.4670852E0,2.6152642E0,-6.3472567E0,-9.108632E0,1.2952409E0,1.629855E1,2.733545E1,7.7624407E0,3.5011276E1,1.949407E1,2.9917236E1,5.1954776E-1,1.555642E1,1.3883971E1,1.746933E1,1.6039375E1,6.4707985E0,1.2936967E1,-4.7007218E-1,-5.0451055E0,-1.2236425E1,3.874337E1,-2.3934631E0,-1.0079454E1,8.949176E0,9.974065E0,-6.5264287E0,2.813774E0,-2.3601394E0,6.606293E0,-1.70647E0,-7.5708904E0,-4.0192814E0,-2.9656754E0,-9.75664E0,2.3040245E1,-3.629766E0,9.492387E0,1.5168138E0,3.878023E0,3.8369752E-3,1.2446221E1,4.1284614E0,5.1234784E0,7.7870398E0,1.1275529E1,5.547261E0,2.5997708E0,-3.5489614E0,5.0949316E0,2.6399755E0,4.674471E0,1.2567103E1,6.119041E0,3.1248672E0,2.530267E0,8.8035697E-1,2.3762524E0,5.2461486E0,-5.748258E-1,1.7185361E0,-5.633536E-1,-3.7118351E0,-2.9593375E0,-4.9802876E0,1.2567508E1,3.4502656E0,-6.285208E0,8.4230256E-1,3.136155E0,1.4230237E0,3.8899052E0,1.4958115E-1,-2.2882643E0,-4.358803E-2,3.423362E0,4.47341E-2,3.1671104E0,-7.8039736E-1,4.8398247E0,1.4244581E0,-7.04311E-1,9.138357E0,-1.730359E0,-2.9117055E0,-1.8887044E0,3.5701722E-1,-1.2174088E0,1.7532458E0,-3.3274508E0,-2.277774E0,7.5966344E0,7.177952E-1,-4.1993117E-1,-3.712433E0],"categories":[],"categories_nodes":[],"categories_segments":[],"categories_sizes":[],"default_left":[0,0,0,0,0,0,0,0,0,0,0,0,0,0,0,0,0,0,0,0,0,0,0,0,0,0,0,0,0,0,0,0,0,0,0,0,0,0,0,0,0,0,0,0,0,0,0,0,0,0,0,0,0,0,0,0,0,0,0,0,0,0,0,0,0,0,0,0,0,0,0,0,0,0,0,0,0,0,0,0,0,0,0,0,0,0,0,0,0,0,0,0,0,0,0,0,0,0,0,0,0,0,0,0,0,0,0,0,0,0,0,0,0,0,0,0,0,0,0,0,0],"id":2,"left_children":[1,3,5,7,9,11,13,15,17,19,21,23,25,27,29,31,33,35,37,39,41,43,45,47,49,51,53,55,57,59,61,-1,63,65,67,69,71,73,75,-1,77,79,81,83,85,87,89,91,-1,93,95,97,99,101,103,105,107,109,111,113,115,117,119,-1,-1,-1,-1,-1,-1,-1,-1,-1,-1,-1,-1,-1,-1,-1,-1,-1,-1,-1,-1,-1,-1,-1,-1,-1,-1,-1,-1,-1,-1,-1,-1,-1,-1,-1,-1,-1,-1,-1,-1,-1,-1,-1,-1,-1,-1,-1,-1,-1,-1,-1,-1,-1,-1,-1,-1,-1,-1],"loss_changes":[1.2143658E5,6.5486555E4,4.1242207E4,8.045297E3,3.2194697E4,2.5330729E4,1.7325898E4,2.9531992E3,2.9438516E3,6.958547E3,9.544193E3,3.3761543E3,1.4765259E3,2.0673113E4,4.881E3,1.496836E2,3.8493936E3,1.4216523E3,1.7324336E3,2.7521484E3,3.6099707E3,5.310613E3,2.1986074E3,2.4373252E3,3.104295E3,1.0103755E3,1.2147213E3,7.2037593E3,1.8866699E3,3.9159297E3,5.2241562E3,0E0,3.1967773E2,4.0005E2,1.4933105E3,1.4458438E3,1.057334E3,1.0079412E3,2.0579688E3,0E0,2.297748E3,9.6366113E2,1.6763369E3,6.3751465E2,2.0366489E3,2.297632E3,6.437383E2,3.2817383E1,0E0,1.3197144E3,2.140002E3,1.0694809E2,6.663987E2,1.2583064E3,8.4370447E2,3.764537E3,4.217534E3,1.6376191E3,2.78239E3,9.475669E2,2.504086E3,3.6344922E2,7.6273157E2,0E0,0E0,0E0,0E0,0E0,0E0,0E0,0E0,0E0,0E0,0E0,0E0,0E0,0E0,0E0,0E0,0E0,0E0,0E0,0E0,0E0,0E0,0E0,0E0,0E0,0E0,0E0,0E0,0E0,0E0,0E0,0E0,0E0,0E0,0E0,0E0,0E0,0E0,0E0,0E0,0E0,0E0,0E0,0E0,0E0,0E0,0E0,0E0,0E0,0E0,0E0,0E0,0E0,0E0,0E0,0E0,0E0,0E0],"parents":[2147483647,0,0,1,1,2,2,3,3,4,4,5,5,6,6,7,7,8,8,9,9,10,10,11,11,12,12,13,13,14,14,15,15,16,16,17,17,18,18,19,19,20,20,21,21,22,22,23,23,24,24,25,25,26,26,27,27,28,28,29,29,30,30,32,32,33,33,34,34,35,35,36,36,37,37,38,38,40,40,41,41,42,42,43,43,44,44,45,45,46,46,47,47,49,49,50,50,51,51,52,52,53,53,54,54,55,55,56,56,57,57,58,58,59,59,60,60,61,61,62,62],"right_children":[2,4,6,8,10,12,14,16,18,20,22,24,26,28,30,32,34,36,38,40,42,44,46,48,50,52,54,56,58,60,62,-1,64,66,68,70,72,74,76,-1,78,80,82,84,86,88,90,92,-1,94,96,98,100,102,104,106,108,110,112,114,116,118,120,-1,-1,-1,-1,-1,-1,-1,-1,-1,-1,-1,-1,-1,-1,-1,-1,-1,-1,-1,-1,-1,-1,-1,-1,-1,-1,-1,-1,-1,-1,-1,-1,-1,-1,-1,-1,-1,-1,-1,-1,-1,-1,-1,-1,-1,-1,-1,-1,-1,-1,-1,-1,-1,-1,-1,-1,-1,-1],"split_conditions":[6.05275E0,1.7315329E2,1.574601E2,-2.7055833E0,2.03774E1,1.5168251E1,2.1194187E1,1.3849477E1,1.433234E1,1.0783486E1,2.8312117E1,7.729527E0,8.7417015E1,1.4888165E1,3.3848587E2,1.105194E2,1.3144426E2,1.3551501E1,6.8055096E0,-2.2889168E0,-3.8891664E-1,-3.8891664E-1,4.0277505E0,2.7999997E0,4.327544E0,1.5417333E1,1.684025E1,1E-1,3.1623328E2,1.8279265E2,7.559E0,1.629855E1,-3.3430834E0,-4.374333E0,2.5006397E1,4E-1,3.0786664E0,1E-1,1.3000001E0,1.3883971E1,5.625666E0,1.6548256E1,3E-1,-1.6993332E0,3.285371E2,3.563818E1,2.2E0,7.93521E1,-2.3934631E0,1E-1,1.4556094E2,1.6489857E1,9E-1,1.3979872E1,9.1576515E1,1.097262E1,1.4777751E1,2.820629E2,4E-1,3.4245445E1,2.9625104E2,2.7691935E1,2.7288855E1,9.492387E0,1.5168138E0,3.878023E0,3.8369752E-3,1.2446221E1,4.1284614E0,5.1234784E0,7.7870398E0,1.1275529E1,5.547261E0,2.5997708E0,-3.5489614E0,5.0949316E0,2.6399755E0,4.674471E0,1.2567103E1,6.119041E0,3.1248672E0,2.530267E0,8.8035697E-1,2.3762524E0,5.2461486E0,-5.748258E-1,1.7185361E0,-5.633536E-1,-3.7118351E0,-2.9593375E0,-4.9802876E0,1.2567508E1,3.4502656E0,-6.285208E0,8.4230256E-1,3.136155E0,1.4230237E0,3.8899052E0,1.4958115E-1,-2.2882643E0,-4.358803E-2,3.423362E0,4.47341E-2,3.1671104E0,-7.8039736E-1,4.8398247E0,1.4244581E0,-7.04311E-1,9.138357E0,-1.730359E0,-2.9117055E0,-1.8887044E0,3.5701722E-1,-1.2174088E0,1.7532458E0,-3.3274508E0,-2.277774E0,7.5966344E0,7.177952E-1,-4.1993117E-1,-3.712433E0],"split_indices":[0,3,3,0,2,0,2,2,2,2,2,2,3,0,3,3,3,2,3,0,0,0,0,1,3,0,0,1,3,3,0,0,0,0,2,1,0,1,1,0,0,2,1,0,3,2,1,3,0,1,3,3,1,2,3,2,0,3,1,2,3,2,2,0,0,0,0,0,0,0,0,0,0,0,0,0,0,0,0,0,0,0,0,0,0,0,0,0,0,0,0,0,0,0,0,0,0,0,0,0,0,0,0,0,0,0,0,0,0,0,0,0,0,0,0,0,0,0,0,0,0],"split_type":[0,0,0,0,0,0,0,0,0,0,0,0,0,0,0,0,0,0,0,0,0,0,0,0,0,0,0,0,0,0,0,0,0,0,0,0,0,0,0,0,0,0,0,0,0,0,0,0,0,0,0,0,0,0,0,0,0,0,0,0,0,0,0,0,0,0,0,0,0,0,0,0,0,0,0,0,0,0,0,0,0,0,0,0,0,0,0,0,0,0,0,0,0,0,0,0,0,0,0,0,0,0,0,0,0,0,0,0,0,0,0,0,0,0,0,0,0,0,0,0,0],"sum_hessian":[4.096E3,1.2E3,2.896E3,4.09E2,7.91E2,7.71E2,2.125E3,3.4E1,3.75E2,3.57E2,4.34E2,3.59E2,4.12E2,1.088E3,1.037E3,1.1E1,2.3E1,1.39E2,2.36E2,6.6E1,2.91E2,2.58E2,1.76E2,6E0,3.53E2,9.7E1,3.15E2,4.16E2,6.72E2,9.9E2,4.7E1,7E0,4E0,9E0,1.4E1,1.2E2,1.9E1,8E0,2.28E2,3E0,6.3E1,4.7E1,2.44E2,3.3E1,2.25E2,9.9E1,7.7E1,5E0,1E0,8E0,3.45E2,3E0,9.4E1,5.4E1,2.61E2,2.16E2,2E2,4.39E2,2.33E2,9.5E1,8.95E2,8E0,3.9E1,3E0,1E0,5E0,4E0,1E1,4E0,9E1,3E1,1E1,9E0,5E0,3E0,1.87E2,4.1E1,6E1,3E0,2.5E1,2.2E1,1.56E2,8.8E1,1.7E1,1.6E1,1.83E2,4.2E1,7E1,2.9E1,5.2E1,2.5E1,4E0,1E0,4E0,4E0,2.53E2,9.2E1,2E0,1E0,8E1,1.4E1,1.2E1,4.2E1,4E0,2.57E2,3.4E1,1.82E2,1.97E2,3E0,2.4E2,1.99E2,1.62E2,7.1E1,8.5E1,1E1,5.51E2,3.44E2,7E0,1E0,3.2E1,7E0],"tree_param":{"num_deleted":"0","num_feature":"4","num_nodes":"121","size_leaf_vector":"1"}},{"base_weights":[8.238483E-2,4.3780313E0,-3.6491652E0,1.1974778E1,1.0518692E0,-2.3136336E-1,-5.333479E0,2.2386894E1,1.0639968E1,8.314736E0,-1.9832088E0,3.0080814E0,-2.3979084E0,-3.9482923E0,-8.638572E0,1.8041273E1,2.9537973E1,1.2266874E1,5.3979163E0,5.585965E0,1.3221674E1,5.423076E-1,-6.600972E0,3.4201634E0,-8.913435E0,-3.513092E0,-7.525384E-1,-1.09486E0,-5.483457E0,-9.100466E0,-9.133214E-3,2.0734228E1,-2.020977E0,3.8106636E1,1.6726099E1,1.3390942E1,7.156018E0,9.019408E0,-1.4227906E-1,1.1350552E1,1.8680301E0,1.9326553E1,1.1507591E1,5.7527E0,-1.1690735E0,-4.4238977E0,-1.0342805E1,-1.6833589E0,4.320294E0,-3.5262027E0,1.6325709E0,-3.0615242E0,-8.756252E0,8.430069E0,-1.0135818E0,5.4632826E0,-2.459324E0,7.821282E-1,-5.8695045E0,-1.6216834E0,-9.601315E0,-1.7839686E0,3.7253277E0,8.659613E0,4.4365E0,-3.8255963E0,3.888209E0,1.2380456E1,2.5211336E-2,7.6215067E0,-1.4439807E0,1.410469E0,4.271348E0,1.7537401E0,7.141748E0,1.1068696E0,4.318075E0,-3.7343976E-1,8.082181E0,4.169338E0,3.6827096E-1,1.0128369E0,-6.8095255E-1,6.835349E0,1.5611403E0,2.099126E0,4.8934784E0,6.6146073E0,1.3293629E0,-1.2160773E0,3.334673E-1,-9.37841E-1,-2.4417381E0,-2.8828387E0,-5.5203424E0,-2.0639126E0,9.402972E-1,1.5341969E0,-1.4238273E-1,-7.576716E-1,1.4923285E0,-1.02316E0,8.448267E-1,-9.876543E-1,-3.4335601E0,-8.574143E-1,3.5899832E0,-4.6491367E-1,8.822333E-1,1.1519519E0,7.0581765E0,-1.5214585E0,-1.5256682E-1,-2.3584479E-1,1.8813969E0,-1.9871826E0,-8.8333744E-1,-2.4472172E0,4.6785888E-1,-2.2260833E0,-3.4322846E0,-9.163591E-1,2.057274E0],"categories":[],"categories_nodes":[],"categories_segments":[],"categories_sizes":[],"default_left":[0,0,0,0,0,0,0,0,0,0,0,0,0,0,0,0,0,0,0,0,0,0,0,0,0,0,0,0,0,0,0,0,0,0,0,0,0,0,0,0,0,0,0,0,0,0,0,0,0,0,0,0,0,0,0,0,0,0,0,0,0,0,0,0,0,0,0,0,0,0,0,0,0,0,0,0,0,0,0,0,0,0,0,0,0,0,0,0,0,0,0,0,0,0,0,0,0,0,0,0,0,0,0,0,0,0,0,0,0,0,0,0,0,0,0,0,0,0,0,0,0,0,0],"id":3,"left_children":[1,3,5,7,9,11,13,15,17,19,21,23,25,27,29,31,33,35,37,39,41,43,45,47,49,51,53,55,57,59,61,63,65,67,69,71,73,75,77,79,81,83,85,87,89,91,93,95,97,-1,99,101,103,105,107,109,111,113,115,117,119,121,-1,-1,-1,-1,-1,-1,-1,-1,-1,-1,-1,-1,-1,-1,-1,-1,-1,-1,-1,-1,-1,-1,-1,-1,-1,-1,-1,-1,-1,-1,-1,-1,-1,-1,-1,-1,-1,-1,-1,-1,-1,-1,-1,-1,-1,-1,-1,-1,-1,-1,-1,-1,-1,-1,-1,-1,-1,-1,-1,-1,-1],"loss_changes":[6.568851E4,4.812297E4,1.2623102E4,7.8227656E3,2.9245994E4,5.0955557E3,6.6912266E3,1.4870273E3,4.3344062E3,5.1615996E3,1.0919434E4,1.460064E3,7.955332E2,4.5365625E3,1.7258047E3,2.3650527E3,1.8875781E3,2.1619375E3,2.489191E3,5.4011836E3,1.2321309E3,5.4104067E3,2.6506533E3,1.3027346E3,3.1875623E2,5.864121E2,4.3282394E2,3.2706353E3,1.6348711E3,1.5239258E3,5.294337E2,1.4103125E3,1.1298856E3,1.5592656E3,2.1786047E3,2.2952656E3,1.4533225E3,2.0951567E3,1.5265067E3,2.5357207E3,9.7490894E2,1.297669E3,2.2910664E3,3.132546E3,3.0108892E3,9.918887E2,5.3822754E2,1.0980409E3,9.1579346E2,0E0,5.4251038E1,5.0192603E2,2.561725E2,2.3380554E2,3.7132642E2,1.7571863E3,1.5363533E3,3.492734E2,1.381791E3,5.7409155E2,1.4598438E3,2.5151874E2,0E0,0E0,0E0,0E0,0E0,0E0,0E0,0E0,0E0,0E0,0E0,0E0,0E0,0E0,0E0,0E0,0E0,0E0,0E0,0E0,0E0,0E0,0E0,0E0,0E0,0E0,0E0,0E0,0E0,0E0,0E0,0E0,0E0,0E0,0E0,0E0,0E0,0E0,0E0,0E0,0E0,0E0,0E0,0E0,0E0,0E0,0E0,0E0,0E0,0E0,0E0,0E0,0E0,0E0,0E0,0E0,0E0,0E0,0E0,0E0,0E0],"parents":[2147483647,0,0,1,1,2,2,3,3,4,4,5,5,6,6,7,7,8,8,9,9,10,10,11,11,12,12,13,13,14,14,15,15,16,16,17,17,18,18,19,19,20,20,21,21,22,22,23,23,24,24,25,25,26,26,27,27,28,28,29,29,30,30,31,31,32,32,33,33,34,34,35,35,36,36,37,37,38,38,39,39,40,40,41,41,42,42,43,43,44,44,45,45,46,46,47,47,48,48,50,50,51,51,52,52,53,53,54,54,55,55,56,56,57,57,58,58,59,59,60,60,61,61],"right_children":[2,4,6,8,10,12,14,16,18,20,22,24,26,28,30,32,34,36,38,40,42,44,46,48,50,52,54,56,58,60,62,64,66,68,70,72,74,76,78,80,82,84,86,88,90,92,94,96,98,-1,100,102,104,106,108,110,112,114,116,118,120,122,-1,-1,-1,-1,-1,-1,-1,-1,-1,-1,-1,-1,-1,-1,-1,-1,-1,-1,-1,-1,-1,-1,-1,-1,-1,-1,-1,-1,-1,-1,-1,-1,-1,-1,-1,-1,-1,-1,-1,-1,-1,-1,-1,-1,-1,-1,-1,-1,-1,-1,-1,-1,-1,-1,-1,-1,-1,-1,-1,-1,-1],"split_conditions":[1.0714084E1,1.658204E2,1.7315329E2,-1.4826669E0,1.7873556E1,1.6598585E1,2.4144167E1,1E-1,2.373271E1,3.1971603E2,2.8551426E1,1.0600001E1,2.2559E1,1.6381918E1,2.5204832E1,1.4245267E2,1.3E0,8.037E0,1.4612909E2,1.27279215E1,4.4858333E-1,2.361083E0,3.563818E1,8.7417015E1,2.2000002E1,2.897944E1,2.266825E1,1.3104198E1,9.565437E0,2.1977399E2,3.1971603E2,-4.374333E0,-2.2889168E0,3.0962095E1,-1.9951668E0,4.2552902E1,1.0525666E1,2.6544964E1,1.6490453E2,2.9915924E2,8.000001E-1,1.6548256E1,4.98075E0,2.3869412E2,2.8983664E2,3.5000002E0,1.0600001E1,1E-1,2.882249E1,-3.5262027E0,1.105275E1,2.7155552E1,1.516726E2,9.107359E0,2.7713167E1,1.3004922E1,2.9858197E2,2.8E0,2.3756918E1,1.5831918E1,1.5831918E1,3.4245445E1,3.7253277E0,8.659613E0,4.4365E0,-3.8255963E0,3.888209E0,1.2380456E1,2.5211336E-2,7.6215067E0,-1.4439807E0,1.410469E0,4.271348E0,1.7537401E0,7.141748E0,1.1068696E0,4.318075E0,-3.7343976E-1,8.082181E0,4.169338E0,3.6827096E-1,1.0128369E0,-6.8095255E-1,6.835349E0,1.5611403E0,2.099126E0,4.8934784E0,6.6146073E0,1.3293629E0,-1.2160773E0,3.334673E-1,-9.37841E-1,-2.4417381E0,-2.8828387E0,-5.5203424E0,-2.0639126E0,9.402972E-1,1.5341969E0,-1.4238273E-1,-7.576716E-1,1.4923285E0,-1.02316E0,8.448267E-1,-9.876543E-1,-3.4335601E0,-8.574143E-1,3.5899832E0,-4.6491367E-1,8.822333E-1,1.1519519E0,7.0581765E0,-1.5214585E0,-1.5256682E-1,-2.3584479E-1,1.8813969E0,-1.9871826E0,-8.8333744E-1,-2.4472172E0,4.6785888E-1,-2.2260833E0,-3.4322846E0,-9.163591E-1,2.057274E0],"split_indices":[0,3,3,0,2,0,2,1,2,3,2,1,0,0,0,3,1,0,3,2,0,0,2,3,1,2,0,2,2,3,3,0,0,2,0,3,0,2,3,3,1,2,0,3,3,1,1,1,2,0,0,2,3,2,0,2,3,1,0,0,0,2,0,0,0,0,0,0,0,0,0,0,0,0,0,0,0,0,0,0,0,0,0,0,0,0,0,0,0,0,0,0,0,0,0,0,0,0,0,0,0,0,0,0,0,0,0,0,0,0,0,0,0,0,0,0,0,0,0,0,0,0,0],"split_type":[0,0,0,0,0,0,0,0,0,0,0,0,0,0,0,0,0,0,0,0,0,0,0,0,0,0,0,0,0,0,0,0,0,0,0,0,0,0,0,0,0,0,0,0,0,0,0,0,0,0,0,0,0,0,0,0,0,0,0,0,0,0,0,0,0,0,0,0,0,0,0,0,0,0,0,0,0,0,0,0,0,0,0,0,0,0,0,0,0,0,0,0,0,0,0,0,0,0,0,0,0,0,0,0,0,0,0,0,0,0,0,0,0,0,0,0,0,0,0,0,0,0,0],"sum_hessian":[4.096E3,1.904E3,2.192E3,5.79E2,1.325E3,7.24E2,1.468E3,6.4E1,5.15E2,3.9E2,9.35E2,2.9E2,4.34E2,1.036E3,4.32E2,4.2E1,2.2E1,3.92E2,1.23E2,2.52E2,1.38E2,6.05E2,3.3E2,2.81E2,9E0,2.58E2,1.76E2,3.63E2,6.73E2,4.1E2,2.2E1,3.7E1,5E0,1.2E1,1E1,3.2E2,7.2E1,7.4E1,4.9E1,9.8E1,1.54E2,2.8E1,1.1E2,1.49E2,4.56E2,2.1E2,1.2E2,4.2E1,2.39E2,7E0,2E0,2.39E2,1.9E1,4E0,1.72E2,6.2E1,3.01E2,3.9E1,6.34E2,2.6E1,3.84E2,2E1,2E0,1.4E1,2.3E1,3E0,2E0,1.1E1,1E0,7E0,3E0,2.9E1,2.91E2,6.8E1,4E0,3.8E1,3.6E1,4.8E1,1E0,7.8E1,2E1,1.13E2,4.1E1,2.2E1,6E0,5.8E1,5.2E1,1E1,1.39E2,2.01E2,2.55E2,1.57E2,5.3E1,1.12E2,8E0,2E1,2.2E1,2.05E2,3.4E1,1E0,1E0,2.26E2,1.3E1,7E0,1.2E1,1E0,3E0,1.52E2,2E1,5.8E1,4E0,1.28E2,1.73E2,3.1E1,8E0,5.03E2,1.31E2,8E0,1.8E1,1.78E2,2.06E2,1.8E1,2E0],"tree_param":{"num_deleted":"0","num_feature":"4","num_nodes":"123","size_leaf_vector":"1"}},{"base_weights":[7.5623095E-2,3.103987E0,-2.5550694E0,8.5491495E0,7.4931175E-1,-1.6743508E-1,-3.7317066E0,1.2260569E1,6.5673957E0,5.802144E0,-1.3738921E0,2.0536637E0,-1.7401017E0,-1.9128844E0,-5.233701E0,2.9158014E1,1.1116792E1,1.3128458E1,5.705625E0,3.5681741E0,9.081482E0,3.405573E-1,-4.5043044E0,-4.8162565E-2,3.2131667E0,-2.0541756E0,2.4636767E0,2.8240283E0,-2.7059329E0,-5.68191E0,-1.6594743E0,1.0102693E1,1.609821E1,9.741178E0,1.832305E1,-1.9347909E-1,1.8291578E1,6.6553655E0,-4.059057E-1,7.612767E0,7.891023E-1,6.8873215E0,1.2683664E1,-7.222634E-1,5.0962453E0,-2.8820302E0,-7.3094106E0,9.4792515E-1,-9.904614E0,3.2126884E1,2.7446547E0,-1.878438E0,-1.3164045E1,5.41039E0,-2.4072587E0,-6.64741E-1,8.923448E0,-3.8348227E0,-2.0523744E-2,-3.4989612E0,-6.411183E0,-5.998479E0,1.1595194E0,6.9534626E0,1.0956422E0,3.5933425E0,5.946508E-1,6.59284E0,2.328989E0,-2.0705209E0,2.6349332E0,3.4252856E0,9.475541E0,1.8284012E0,8.535843E0,-1.9947175E0,1.1535047E0,1.3839673E0,4.5322223E0,6.2552035E-1,-1.592274E0,4.3768635E0,1.4774215E0,6.050638E0,2.2023764E0,9.055053E-1,-5.454846E-1,1.9390092E0,-1.4512811E0,6.8698545E0,-9.338239E-1,-6.976652E-1,-2.4473395E0,1.8785287E0,-9.3069986E-2,-4.736758E0,8.6086583E-1,1.282755E1,1.6295483E0,-4.137753E0,9.509621E-1,-6.0288566E-1,3.3947136E0,-4.2799206E0,-1.1478395E0,3.89523E0,9.536439E-1,-1.815467E0,6.7368966E-1,4.345847E0,-6.743731E-1,4.001042E0,-1.9406769E-1,7.5788446E-2,-1.4943465E0,-1.008606E0,1.5123487E0,-1.2268505E0,2.472391E0,-2.252088E0,-8.521232E-1,-1.1914839E0,-3.7788181E0,1.2001579E0,-1.0238907E0],"categories":[],"categories_nodes":[],"categories_segments":[],"categories_sizes":[],"default_left":[0,0,0,0,0,0,0,0,0,0,0,0,0,0,0,0,0,0,0,0,0,0,0,0,0,0,0,0,0,0,0,0,0,0,0,0,0,0,0,0,0,0,0,0,0,0,0,0,0,0,0,0,0,0,0,0,0,0,0,0,0,0,0,0,0,0,0,0,0,0,0,0,0,0,0,0,0,0,0,0,0,0,0,0,0,0,0,0,0,0,0,0,0,0,0,0,0,0,0,0,0,0,0,0,0,0,0,0,0,0,0,0,0,0,0,0,0,0,0,0,0,0,0,0,0],"id":4,"left_children":[1,3,5,7,9,11,13,15,17,19,21,23,25,27,29,31,33,35,37,39,41,43,45,47,49,51,53,55,57,59,61,-1,63,65,67,69,71,73,75,77,79,81,83,85,87,89,91,93,95,97,99,101,103,105,107,109,111,113,115,117,119,121,123,-1,-1,-1,-1,-1,-1,-1,-1,-1,-1,-1,-1,-1,-1,-1,-1,-1,-1,-1,-1,-1,-1,-1,-1,-1,-1,-1,-1,-1,-1,-1,-1,-1,-1,-1,-1,-1,-1,-1,-1,-1,-1,-1,-1,-1,-1,-1,-1,-1,-1,-1,-1,-1,-1,-1,-1,-1,-1,-1,-1,-1,-1],"loss_changes":[3.2647477E4,2.441872E4,6.160343E3,4.148672E3,1.4287196E4,2.5360337E3,4.0030938E3,3.5219102E3,2.0567012E3,2.8540166E3,5.035718E3,7.3371387E2,5.66187E2,2.509538E3,1.2785781E3,1.6587402E2,1.6851602E3,2.9611973E3,1.947165E3,2.6466836E3,1.1693428E3,3.071728E3,1.48975E3,1.069721E3,2.5398296E3,7.484313E2,4.436217E2,2.0487603E3,1.7309253E3,1.1142305E3,1.1200333E3,0E0,3.5594067E2,2.7529033E3,9.480869E2,8.4344324E2,2.4721348E3,3.3708906E3,1.2463666E3,2.088434E3,1.1251202E3,1.4548916E3,2.2112637E3,2.04308E3,1.5387307E3,1.3323015E3,4.9264648E2,6.6382184E2,7.970141E2,6.19178E2,1.3938486E3,6.994907E2,7.177124E0,2.7985095E2,2.1706781E2,1.5197225E3,1.4869348E3,1.8848599E3,2.892261E3,1.288593E3,2.0680957E3,4.3138013E2,7.411199E2,0E0,0E0,0E0,0E0,0E0,0E0,0E0,0E0,0E0,0E0,0E0,0E0,0E0,0E0,0E0,0E0,0E0,0E0,0E0,0E0,0E0,0E0,0E0,0E0,0E0,0E0,0E0,0E0,0E0,0E0,0E0,0E0,0E0,0E0,0E0,0E0,0E0,0E0,0E0,0E0,0E0,0E0,0E0,0E0,0E0,0E0,0E0,0E0,0E0,0E0,0E0,0E0,0E0,0E0,0E0,0E0,0E0,0E0,0E0,0E0,0E0,0E0],"parents":[2147483647,0,0,1,1,2,2,3,3,4,4,5,5,6,6,7,7,8,8,9,9,10,10,11,11,12,12,13,13,14,14,15,15,16,16,17,17,18,18,19,19,20,20,21,21,22,22,23,23,24,24,25,25,26,26,27,27,28,28,29,29,30,30,32,32,33,33,34,34,35,35,36,36,37,37,38,38,39,39,40,40,41,41,42,42,43,43,44,44,45,45,46,46,47,47,48,48,49,49,50,50,51,51,52,52,53,53,54,54,55,55,56,56,57,57,58,58,59,59,60,60,61,61,62,62],"right_children":[2,4,6,8,10,12,14,16,18,20,22,24,26,28,30,32,34,36,38,40,42,44,46,48,50,52,54,56,58,60,62,-1,64,66,68,70,72,74,76,78,80,82,84,86,88,90,92,94,96,98,100,102,104,106,108,110,112,114,116,118,120,122,124,-1,-1,-1,-1,-1,-1,-1,-1,-1,-1,-1,-1,-1,-1,-1,-1,-1,-1,-1,-1,-1,-1,-1,-1,-1,-1,-1,-1,-1,-1,-1,-1,-1,-1,-1,-1,-1,-1,-1,-1,-1,-1,-1,-1,-1,-1,-1,-1,-1,-1,-1,-1,-1,-1,-1,-1,-1,-1,-1,-1,-1,-1],"split_conditions":[1.0714084E1,1.6490453E2,1.7315329E2,1.433234E1,1.7873556E1,1.684025E1,1.9296133E1,-2.7055833E0,-1.4826669E0,3.1623328E2,2.8551426E1,1.3081496E2,5.099999E0,1.3316167E1,3.274005E2,1.105194E2,1.3551501E1,1.282205E2,1.5272331E2,1.27279215E1,4.98075E0,3.293269E2,3.563818E1,2.1841648E1,1.3144426E2,3.8999999E0,1.2100002E1,1.2494416E1,3.2525067E2,1E-1,1E-1,1.0102693E1,-4.374333E0,1.2397806E1,1.396596E2,2.226768E1,-1.9951668E0,1.516726E2,1.574601E2,2.746419E2,1.5E0,-1.0650834E0,7.0932503E0,2.5860834E0,2.7059933E1,1.658204E2,1E-1,1.1500667E1,4E0,1.4436085E1,1.3410492E2,3.3999996E0,2.0814087E1,1.9798582E1,2.0814087E1,9.565437E0,3.232806E2,1.2313894E1,1E-1,3.5900864E1,2.1392334E1,3.520378E2,2.361364E1,6.9534626E0,1.0956422E0,3.5933425E0,5.946508E-1,6.59284E0,2.328989E0,-2.0705209E0,2.6349332E0,3.4252856E0,9.475541E0,1.8284012E0,8.535843E0,-1.9947175E0,1.1535047E0,1.3839673E0,4.5322223E0,6.2552035E-1,-1.592274E0,4.3768635E0,1.4774215E0,6.050638E0,2.2023764E0,9.055053E-1,-5.454846E-1,1.9390092E0,-1.4512811E0,6.8698545E0,-9.338239E-1,-6.976652E-1,-2.4473395E0,1.8785287E0,-9.3069986E-2,-4.736758E0,8.6086583E-1,1.282755E1,1.6295483E0,-4.137753E0,9.509621E-1,-6.0288566E-1,3.3947136E0,-4.2799206E0,-1.1478395E0,3.89523E0,9.536439E-1,-1.815467E0,6.7368966E-1,4.345847E0,-6.743731E-1,4.001042E0,-1.9406769E-1,7.5788446E-2,-1.4943465E0,-1.008606E0,1.5123487E0,-1.2268505E0,2.472391E0,-2.252088E0,-8.521232E-1,-1.1914839E0,-3.7788181E0,1.2001579E0,-1.0238907E0],"split_indices":[0,3,3,2,2,0,2,0,0,3,2,3,1,0,3,3,2,3,3,2,0,3,2,2,3,1,1,0,3,1,1,0,0,2,3,2,0,3,3,3,1,0,0,0,2,3,1,0,1,0,3,1,0,0,0,2,3,2,1,2,0,3,2,0,0,0,0,0,0,0,0,0,0,0,0,0,0,0,0,0,0,0,0,0,0,0,0,0,0,0,0,0,0,0,0,0,0,0,0,0,0,0,0,0,0,0,0,0,0,0,0,0,0,0,0,0,0,0,0,0,0,0,0,0,0],"split_type":[0,0,0,0,0,0,0,0,0,0,0,0,0,0,0,0,0,0,0,0,0,0,0,0,0,0,0,0,0,0,0,0,0,0,0,0,0,0,0,0,0,0,0,0,0,0,0,0,0,0,0,0,0,0,0,0,0,0,0,0,0,0,0,0,0,0,0,0,0,0,0,0,0,0,0,0,0,0,0,0,0,0,0,0,0,0,0,0,0,0,0,0,0,0,0,0,0,0,0,0,0,0,0,0,0,0,0,0,0,0,0,0,0,0,0,0,0,0,0,0,0,0,0,0,0],"sum_hessian":[4.096E3,1.904E3,2.192E3,5.74E2,1.33E3,7.24E2,1.468E3,1.98E2,3.76E2,3.93E2,9.37E2,3E2,4.24E2,6.65E2,8.03E2,1.1E1,1.87E2,4.2E1,3.34E2,2.35E2,1.58E2,6.06E2,3.31E2,1.07E2,1.93E2,3.95E2,2.9E1,9.5E1,5.7E2,7.13E2,9E1,7E0,4E0,1.59E2,2.8E1,1.2E1,3E1,2.89E2,4.5E1,9.5E1,1.4E2,1E2,5.8E1,4.96E2,1.1E2,2.11E2,1.2E2,9.8E1,9E0,2E0,1.91E2,3.9E2,5E0,1.8E1,1.1E1,6.1E1,3.4E1,4.01E2,1.69E2,1.8E2,5.33E2,3.5E1,5.5E1,2E0,2E0,1.23E2,3.6E1,2E1,8E0,7E0,5E0,2.1E1,9E0,2.83E2,6E0,1.8E1,2.7E1,6.9E1,2.6E1,1.16E2,2.4E1,1.9E1,8.1E1,2.3E1,3.5E1,1.12E2,3.84E2,9.7E1,1.3E1,1E0,2.1E2,1.8E1,1.02E2,1.8E1,8E1,6E0,3E0,1E0,1E0,4E0,1.87E2,3.87E2,3E0,4E0,1E0,3E0,1.5E1,6E0,5E0,5E0,5.6E1,2.3E1,1.1E1,8.8E1,3.13E2,1.02E2,6.7E1,1.72E2,8E0,4.07E2,1.26E2,2.8E1,7E0,3.4E1,2.1E1],"tree_param":{"num_deleted":"0","num_feature":"4","num_nodes":"125","size_leaf_vector":"1"}},{"base_weights":[7.419779E-2,3.571479E0,-1.1167554E0,6.5989485E0,1.0485183E0,1.5148076E0,-1.9683971E0,1.4720146E1,5.876003E0,5.053533E0,-5.169716E-1,3.864108E0,-8.829022E-1,-2.7751067E0,5.280336E-1,2.3741404E1,1.0650361E1,-6.125259E0,6.2886634E0,1.4918938E1,4.0053506E0,2.9057484E0,-1.960068E0,1.8387863E1,3.5003839E0,1.0528301E0,-1.6408385E0,-1.232753E0,-3.688699E0,6.6472564E0,-1.0164783E0,2.580923E1,4.5947E-1,4.168245E0,1.5990312E1,-1.6065401E0,-5.44503E0,1.5940922E1,5.768798E0,-2.3269055E0,2.377455E1,-8.280056E-1,5.5947037E0,1.7707638E0,1.0883922E1,-1.5564805E0,-9.776502E0,2.3050102E1,-2.836506E0,-2.1754012E0,5.0487084E0,3.9367692E0,-1.8509737E0,-5.5814447E0,-8.169253E-1,3.5267133E-1,-3.4854846E0,-4.1588244E0,-1.0298102E0,1.2979389E1,1.8454114E0,1.2890981E0,-1.8537021E0,3.1367676E0,8.502174E0,4.619994E0,-8.848614E-2,6.5167804E0,1.1314331E0,-1.9043931E0,1.89032E0,6.0680914E0,-5.4594773E-1,1.6302226E0,5.151797E0,6.465054E0,-3.4237077E0,1.1648229E1,2.1804183E0,-1.185914E0,5.98886E0,1.910318E0,-1.5171891E0,7.0508003E-1,-5.788578E0,5.6140327E0,1.075491E0,-5.6242175E-2,-1.0862195E0,-3.635325E0,-1.3905644E0,1.5959256E0,7.4469132E0,-1.9460784E0,5.0561273E-1,2.604588E0,8.666127E-1,7.146821E-1,4.7149816E0,-1.97839E0,2.981564E-1,-2.1612449E0,2.9421228E-1,-2.0843346E0,-6.266274E-2,1.7192055E0,-2.1721005E-1,1.5149804E0,-1.1503606E0,-1.1324488E0,-2.3383288E0,-1.7885622E-2,-1.4814508E0,-3.9104052E0,4.3091116E0,-1.0907753E0,1.1929975E0,-5.0526553E-1,1.904438E0,-3.363845E0,-4.764016E-1],"categories":[],"categories_nodes":[],"categories_segments":[],"categories_sizes":[],"default_left":[0,0,0,0,0,0,0,0,0,0,0,0,0,0,0,0,0,0,0,0,0,0,0,0,0,0,0,0,0,0,0,0,0,0,0,0,0,0,0,0,0,0,0,0,0,0,0,0,0,0,0,0,0,0,0,0,0,0,0,0,0,0,0,0,0,0,0,0,0,0,0,0,0,0,0,0,0,0,0,0,0,0,0,0,0,0,0,0,0,0,0,0,0,0,0,0,0,0,0,0,0,0,0,0,0,0,0,0,0,0,0,0,0,0,0,0,0,0,0,0,0],"id":5,"left_children":[1,3,5,7,9,11,13,15,17,19,21,23,25,27,29,31,33,35,37,39,41,43,45,47,49,51,53,55,57,59,61,63,-1,65,67,69,-1,71,73,75,77,79,81,83,85,87,89,91,-1,93,95,97,99,101,103,105,107,109,111,113,115,117,119,-1,-1,-1,-1,-1,-1,-1,-1,-1,-1,-1,-1,-1,-1,-1,-1,-1,-1,-1,-1,-1,-1,-1,-1,-1,-1,-1,-1,-1,-1,-1,-1,-1,-1,-1,-1,-1,-1,-1,-1,-1,-1,-1,-1,-1,-1,-1,-1,-1,-1,-1,-1,-1,-1,-1,-1,-1,-1],"loss_changes":[1.7068396E4,7.9444307E3,6.854175E3,2.6905762E3,3.5701348E3,4.2168516E3,4.6535615E3,1.1422998E3,2.197789E3,1.5947632E3,2.0308147E3,1.9324731E3,5.4604456E2,2.455711E3,5.3466914E3,4.656582E2,9.0254565E2,7.858943E2,2.025584E3,2.3461582E3,1.1261912E3,1.08545E3,8.964667E2,1.3862305E3,3.2625278E3,8.8659814E2,8.6231396E2,2.3262988E3,1.3657305E3,3.4423218E3,8.7487756E2,9.23208E1,0E0,7.063548E2,9.6870557E2,4.8992E2,0E0,1.6354014E3,1.441167E3,1.5475431E3,2.2025015E3,2.4828901E3,9.3796924E2,1.3637938E3,7.901222E2,7.7929E2,1.12349976E2,1.1942676E2,0E0,1.3426003E3,2.2586362E3,9.3307904E2,7.2178357E2,4.968932E2,8.2613464E2,2.221923E3,8.207942E2,1.2703047E3,6.291538E2,1.9517998E3,7.8547485E2,1.8307847E3,8.0777356E2,0E0,0E0,0E0,0E0,0E0,0E0,0E0,0E0,0E0,0E0,0E0,0E0,0E0,0E0,0E0,0E0,0E0,0E0,0E0,0E0,0E0,0E0,0E0,0E0,0E0,0E0,0E0,0E0,0E0,0E0,0E0,0E0,0E0,0E0,0E0,0E0,0E0,0E0,0E0,0E0,0E0,0E0,0E0,0E0,0E0,0E0,0E0,0E0,0E0,0E0,0E0,0E0,0E0,0E0,0E0,0E0,0E0,0E0],"parents":[2147483647,0,0,1,1,2,2,3,3,4,4,5,5,6,6,7,7,8,8,9,9,10,10,11,11,12,12,13,13,14,14,15,15,16,16,17,17,18,18,19,19,20,20,21,21,22,22,23,23,24,24,25,25,26,26,27,27,28,28,29,29,30,30,31,31,33,33,34,34,35,35,37,37,38,38,39,39,40,40,41,41,42,42,43,43,44,44,45,45,46,46,47,47,49,49,50,50,51,51,52,52,53,53,54,54,55,55,56,56,57,57,58,58,59,59,60,60,61,61,62,62],"right_children":[2,4,6,8,10,12,14,16,18,20,22,24,26,28,30,32,34,36,38,40,42,44,46,48,50,52,54,56,58,60,62,64,-1,66,68,70,-1,72,74,76,78,80,82,84,86,88,90,92,-1,94,96,98,100,102,104,106,108,110,112,114,116,118,120,-1,-1,-1,-1,-1,-1,-1,-1,-1,-1,-1,-1,-1,-1,-1,-1,-1,-1,-1,-1,-1,-1,-1,-1,-1,-1,-1,-1,-1,-1,-1,-1,-1,-1,-1,-1,-1,-1,-1,-1,-1,-1,-1,-1,-1,-1,-1,-1,-1,-1,-1,-1,-1,-1,-1,-1,-1,-1],"split_conditions":[5.179833E0,2.532907E2,1.5431941E2,-2.7055833E0,1.7477621E1,1.5168251E1,3.1623328E2,1.1367109E1,-1.9951668E0,8.942214E0,1.0548333E0,7.729527E0,1.1808878E1,1E-1,9.563169E0,-3.3430834E0,1.3247552E2,1.5633362E2,-1.4826669E0,2.0319166E0,1.1966953E1,3.4247952E2,4.2095375E1,2.7999997E0,1.0734873E2,2.0550665E1,7.93521E1,1.684025E1,2.2042336E1,1E-1,1.4654254E1,8.714677E0,4.5947E-1,1.3849477E1,1.3894876E2,1.3804611E2,-5.44503E0,1.3E0,4.98075E0,-2.2889168E0,3.96525E0,3.520378E2,4.2E0,3.3979233E2,-4.374333E0,3.0625388E2,2E0,5.3995E0,-2.836506E0,1E-1,1.3538449E2,1.4612909E2,2.2809E1,2E0,1.5831918E1,1.3479583E1,8.714677E0,3.563818E1,3.0259457E2,8.647496E0,6.4173336E0,1E-1,1.4799459E1,3.1367676E0,8.502174E0,4.619994E0,-8.848614E-2,6.5167804E0,1.1314331E0,-1.9043931E0,1.89032E0,6.0680914E0,-5.4594773E-1,1.6302226E0,5.151797E0,6.465054E0,-3.4237077E0,1.1648229E1,2.1804183E0,-1.185914E0,5.98886E0,1.910318E0,-1.5171891E0,7.0508003E-1,-5.788578E0,5.6140327E0,1.075491E0,-5.6242175E-2,-1.0862195E0,-3.635325E0,-1.3905644E0,1.5959256E0,7.4469132E0,-1.9460784E0,5.0561273E-1,2.604588E0,8.666127E-1,7.146821E-1,4.7149816E0,-1.97839E0,2.981564E-1,-2.1612449E0,2.9421228E-1,-2.0843346E0,-6.266274E-2,1.7192055E0,-2.1721005E-1,1.5149804E0,-1.1503606E0,-1.1324488E0,-2.3383288E0,-1.7885622E-2,-1.4814508E0,-3.9104052E0,4.3091116E0,-1.0907753E0,1.1929975E0,-5.0526553E-1,1.904438E0,-3.363845E0,-4.764016E-1],"split_indices":[0,3,3,0,2,0,3,2,0,2,0,2,2,1,0,0,3,3,0,0,2,3,2,1,3,0,3,0,0,1,2,2,0,2,3,3,0,1,0,0,0,3,1,3,0,3,1,0,0,1,3,3,0,1,0,2,2,2,3,2,0,1,2,0,0,0,0,0,0,0,0,0,0,0,0,0,0,0,0,0,0,0,0,0,0,0,0,0,0,0,0,0,0,0,0,0,0,0,0,0,0,0,0,0,0,0,0,0,0,0,0,0,0,0,0,0,0,0,0,0,0],"split_type":[0,0,0,0,0,0,0,0,0,0,0,0,0,0,0,0,0,0,0,0,0,0,0,0,0,0,0,0,0,0,0,0,0,0,0,0,0,0,0,0,0,0,0,0,0,0,0,0,0,0,0,0,0,0,0,0,0,0,0,0,0,0,0,0,0,0,0,0,0,0,0,0,0,0,0,0,0,0,0,0,0,0,0,0,0,0,0,0,0,0,0,0,0,0,0,0,0,0,0,0,0,0,0,0,0,0,0,0,0,0,0,0,0,0,0,0,0,0,0,0,0],"sum_hessian":[4.096E3,1.04E3,3.056E3,4.72E2,5.68E2,7.47E2,2.309E3,3.7E1,4.35E2,1.59E2,4.09E2,3.77E2,3.7E2,1.745E3,5.64E2,1E1,2.7E1,1.4E1,4.21E2,1.4E1,1.45E2,1.21E2,2.88E2,8E0,3.69E2,1.04E2,2.66E2,6.5E2,1.095E3,1.13E2,4.51E2,9E0,1E0,1.3E1,1.4E1,1.1E1,3E0,2E1,4.01E2,5E0,9E0,3.6E1,1.09E2,1.07E2,1.4E1,2.75E2,1.3E1,7E0,1E0,7.9E1,2.9E2,5.2E1,5.2E1,4.5E1,2.21E2,3.82E2,2.68E2,9.3E2,1.65E2,4.8E1,6.5E1,1.2E2,3.31E2,2E0,7E0,3E0,1E1,9E0,5E0,7E0,4E0,1.6E1,4E0,3.91E2,1E1,1E0,4E0,4E0,5E0,3.2E1,4E0,1.02E2,7E0,1.05E2,2E0,6E0,8E0,1.66E2,1.09E2,8E0,5E0,1E0,6E0,3.7E1,4.2E1,1.07E2,1.83E2,4.7E1,5E0,1.9E1,3.3E1,3.6E1,9E0,1.9E1,2.02E2,6.3E1,3.19E2,1E1,2.58E2,8.43E2,8.7E1,1.33E2,3.2E1,2E0,4.6E1,1.8E1,4.7E1,7.6E1,4.4E1,8E0,3.23E2],"tree_param":{"num_deleted":"0","num_feature":"4","num_nodes":"121","size_leaf_vector":"1"}},{"base_weights":[6.452204E-2,1.3826591E0,-1.6283722E0,2.8035157E0,-8.1687915E-1,-1.0993863E0,-3.5678792E0,6.765544E0,2.1529152E0,6.914911E0,-1.5647318E0,6.827236E-1,-1.5873485E0,-1.3340482E1,-3.1894848E0,2.076723E1,5.905736E0,-7.240875E0,2.3745577E0,1.4419513E1,3.6337645E0,-1.2377026E0,-6.7252226E0,6.3433714E0,-1.9897823E-1,-2.0735326E0,5.388618E-1,-1.790688E1,-1.5395905E0,-1.2648633E-1,-4.496663E0,8.364716E0,6.778179E0,1.9150753E1,5.3608694E0,-1.0188371E1,1.2991194E1,4.503672E0,1.2348293E0,1.7272116E1,2.9830208E0,-4.193638E0,7.978134E0,-1.4609827E0,4.378114E0,-7.5443797E0,4.8891463E0,-1.5091413E0,9.27293E0,5.549806E0,-1.1901447E0,-2.650062E0,-5.922681E-1,1.8628821E-1,4.7360663E0,-8.804667E-1,-1.9244335E1,-9.1010255E-1,4.676908E-1,-1.2717371E0,8.692864E0,-4.964439E0,2.4818037E0,3.3793364E0,3.8478586E-1,1.570974E0,7.100732E0,-8.759145E-1,1.8217602E0,-3.3497946E0,1.9911405E0,6.6819124E0,-2.2281523E0,1.468706E0,-1.8437258E0,1.1506083E0,1.1558569E-1,5.763014E0,1.5607092E0,3.6771805E0,-1.415526E0,1.2553295E0,-3.247768E0,6.028615E0,4.0741178E-1,-4.5918074E-1,4.908398E0,-1.7360574E0,1.9927748E0,1.6703089E-1,-2.6823246E0,2.2628827E0,-2.0934153E0,1.1087505E0,5.5710335E0,-1.510691E0,3.7126577E0,-8.565228E-1,1.2894936E0,-3.4946778E-1,-1.1300436E0,9.125816E-1,-4.6285972E-1,1.4572757E-1,-1.7870748E0,2.8079464E0,8.8471794E-1,-6.2555428E0,-9.576817E-1,1.7281495E-1,3.7645914E-2,6.3530974E0,-5.137203E-1,3.7002215E0,-2.2667546E0,-8.300511E-1,-1.709361E0,1.8368986E-1,3.300617E0],"categories":[],"categories_nodes":[],"categories_segments":[],"categories_sizes":[],"default_left":[0,0,0,0,0,0,0,0,0,0,0,0,0,0,0,0,0,0,0,0,0,0,0,0,0,0,0,0,0,0,0,0,0,0,0,0,0,0,0,0,0,0,0,0,0,0,0,0,0,0,0,0,0,0,0,0,0,0,0,0,0,0,0,0,0,0,0,0,0,0,0,0,0,0,0,0,0,0,0,0,0,0,0,0,0,0,0,0,0,0,0,0,0,0,0,0,0,0,0,0,0,0,0,0,0,0,0,0,0,0,0,0,0,0,0,0,0,0,0],"id":6,"left_children":[1,3,5,7,9,11,13,15,17,19,21,23,25,27,29,31,33,35,37,39,41,43,45,47,49,51,53,55,57,59,61,63,-1,65,67,69,71,73,75,77,79,81,83,85,87,89,-1,91,93,95,97,99,101,103,105,-1,107,-1,109,111,113,115,117,-1,-1,-1,-1,-1,-1,-1,-1,-1,-1,-1,-1,-1,-1,-1,-1,-1,-1,-1,-1,-1,-1,-1,-1,-1,-1,-1,-1,-1,-1,-1,-1,-1,-1,-1,-1,-1,-1,-1,-1,-1,-1,-1,-1,-1,-1,-1,-1,-1,-1,-1,-1,-1,-1,-1,-1],"loss_changes":[9.144569E3,7.202817E3,1.8366704E3,3.594212E3,5.2437476E3,1.228092E3,1.3774434E3,2.2489893E3,2.5239976E3,1.9174985E3,1.3856597E3,1.5185272E3,1.14649E3,7.268567E2,1.4848728E3,6.0220703E1,1.2468711E3,1.8021094E3,2.850561E3,7.3144727E2,1.9717498E3,9.8193054E2,1.0470398E3,9.5717456E2,1.5108774E3,7.687322E2,3.054412E2,1.4376367E2,1.641406E1,1.1422963E3,8.610537E2,4.7160675E1,0E0,3.1613892E2,1.0843623E3,4.853296E2,9.2350635E2,1.7417256E3,1.6952379E3,3.44479E2,4.8638535E2,1.2121753E3,2.9407517E3,9.543904E2,7.289875E2,5.4809326E2,0E0,6.466953E2,1.4869058E3,2.8801958E3,2.077438E3,1.0720195E3,8.8217896E2,3.561175E2,1.0460022E2,0E0,1.656648E2,0E0,3.8956344E-2,1.0254978E3,8.623384E2,3.7751172E2,2.6405045E2,0E0,0E0,0E0,0E0,0E0,0E0,0E0,0E0,0E0,0E0,0E0,0E0,0E0,0E0,0E0,0E0,0E0,0E0,0E0,0E0,0E0,0E0,0E0,0E0,0E0,0E0,0E0,0E0,0E0,0E0,0E0,0E0,0E0,0E0,0E0,0E0,0E0,0E0,0E0,0E0,0E0,0E0,0E0,0E0,0E0,0E0,0E0,0E0,0E0,0E0,0E0,0E0,0E0,0E0,0E0,0E0],"parents":[2147483647,0,0,1,1,2,2,3,3,4,4,5,5,6,6,7,7,8,8,9,9,10,10,11,11,12,12,13,13,14,14,15,15,16,16,17,17,18,18,19,19,20,20,21,21,22,22,23,23,24,24,25,25,26,26,27,27,28,28,29,29,30,30,31,31,33,33,34,34,35,35,36,36,37,37,38,38,39,39,40,40,41,41,42,42,43,43,44,44,45,45,47,47,48,48,49,49,50,50,51,51,52,52,53,53,54,54,56,56,58,58,59,59,60,60,61,61,62,62],"right_children":[2,4,6,8,10,12,14,16,18,20,22,24,26,28,30,32,34,36,38,40,42,44,46,48,50,52,54,56,58,60,62,64,-1,66,68,70,72,74,76,78,80,82,84,86,88,90,-1,92,94,96,98,100,102,104,106,-1,108,-1,110,112,114,116,118,-1,-1,-1,-1,-1,-1,-1,-1,-1,-1,-1,-1,-1,-1,-1,-1,-1,-1,-1,-1,-1,-1,-1,-1,-1,-1,-1,-1,-1,-1,-1,-1,-1,-1,-1,-1,-1,-1,-1,-1,-1,-1,-1,-1,-1,-1,-1,-1,-1,-1,-1,-1,-1,-1,-1,-1],"split_conditions":[1.3316167E1,2.3510508E1,2.4850431E1,1.0783486E1,1.4129152E2,1.609025E1,1.4245267E2,-2.2889168E0,1.108572E1,4.4858333E-1,9.9E0,1.1592894E1,2.4172419E1,1.6000001E0,2.1977399E2,8.714677E0,1.1085428E1,3.1971603E2,1.6490453E2,7E-1,2.5277023E1,3.406544E2,1.2669418E1,9.1576515E1,1.3894876E2,1.2E0,2.8271498E1,1.0259334E2,1.647775E1,3.5105072E1,2.5204832E1,-4.374333E0,6.778179E0,9.36E0,-1.0650834E0,1.1418251E1,3.310003E2,1.2669418E1,2.361083E0,1.4091394E2,2.1914925E1,5.5703335E0,2.6729847E1,9.5E0,2.4766848E1,2.9694166E0,4.8891463E0,8.647496E0,1.0587917E1,1.43027525E1,2.1915691E1,1.4986553E1,2.1E0,2.373271E1,1.4780428E2,-8.804667E-1,2.018075E1,-9.1010255E-1,1.8236082E1,2.494413E1,4.638974E1,1.5923584E1,3.1971603E2,3.3793364E0,3.8478586E-1,1.570974E0,7.100732E0,-8.759145E-1,1.8217602E0,-3.3497946E0,1.9911405E0,6.6819124E0,-2.2281523E0,1.468706E0,-1.8437258E0,1.1506083E0,1.1558569E-1,5.763014E0,1.5607092E0,3.6771805E0,-1.415526E0,1.2553295E0,-3.247768E0,6.028615E0,4.0741178E-1,-4.5918074E-1,4.908398E0,-1.7360574E0,1.9927748E0,1.6703089E-1,-2.6823246E0,2.2628827E0,-2.0934153E0,1.1087505E0,5.5710335E0,-1.510691E0,3.7126577E0,-8.565228E-1,1.2894936E0,-3.4946778E-1,-1.1300436E0,9.125816E-1,-4.6285972E-1,1.4572757E-1,-1.7870748E0,2.8079464E0,8.8471794E-1,-6.2555428E0,-9.576817E-1,1.7281495E-1,3.7645914E-2,6.3530974E0,-5.137203E-1,3.7002215E0,-2.2667546E0,-8.300511E-1,-1.709361E0,1.8368986E-1,3.300617E0],"split_indices":[0,2,2,2,3,0,3,0,2,0,1,2,0,1,3,2,3,3,3,1,2,3,0,3,3,1,0,3,0,2,0,0,0,2,0,0,3,0,0,3,3,0,2,1,2,0,0,2,2,0,2,2,1,2,3,0,0,0,0,2,2,0,3,0,0,0,0,0,0,0,0,0,0,0,0,0,0,0,0,0,0,0,0,0,0,0,0,0,0,0,0,0,0,0,0,0,0,0,0,0,0,0,0,0,0,0,0,0,0,0,0,0,0,0,0,0,0,0,0],"split_type":[0,0,0,0,0,0,0,0,0,0,0,0,0,0,0,0,0,0,0,0,0,0,0,0,0,0,0,0,0,0,0,0,0,0,0,0,0,0,0,0,0,0,0,0,0,0,0,0,0,0,0,0,0,0,0,0,0,0,0,0,0,0,0,0,0,0,0,0,0,0,0,0,0,0,0,0,0,0,0,0,0,0,0,0,0,0,0,0,0,0,0,0,0,0,0,0,0,0,0,0,0,0,0,0,0,0,0,0,0,0,0,0,0,0,0,0,0,0,0],"sum_hessian":[4.096E3,2.303E3,1.793E3,1.399E3,9.04E2,1.41E3,3.83E2,1.96E2,1.203E3,7.9E1,8.25E2,3.03E2,1.107E3,1.3E1,3.7E2,1E1,1.86E2,2.7E1,1.176E3,2.3E1,5.6E1,7.77E2,4.8E1,4E1,2.63E2,9.01E2,2.06E2,9E0,4E0,1.11E2,2.59E2,2E0,8E0,6E0,1.8E2,2.4E1,3E0,4.09E2,7.67E2,1.8E1,5E0,2E1,3.6E1,7.48E2,2.9E1,4.7E1,1E0,1.1E1,2.9E1,3.8E1,2.25E2,6.48E2,2.53E2,1.91E2,1.5E1,1E0,8E0,2E0,2E0,9.9E1,1.2E1,2.43E2,1.6E1,1E0,1E0,2E0,4E0,1.4E1,1.66E2,2.3E1,1E0,2E0,1E0,3.95E2,1.4E1,1.88E2,5.79E2,1.5E1,3E0,2E0,3E0,9E0,1.1E1,1.2E1,2.4E1,7.46E2,2E0,5E0,2.4E1,7E0,4E1,4E0,7E0,1.9E1,1E1,1.5E1,2.3E1,1.73E2,5.2E1,2.79E2,3.69E2,5.2E1,2.01E2,1.83E2,8E0,3E0,1.2E1,7E0,1E0,1E0,1E0,1E0,9.8E1,1E1,2E0,6.2E1,1.81E2,1.4E1,2E0],"tree_param":{"num_deleted":"0","num_feature":"4","num_nodes":"119","size_leaf_vector":"1"}},{"base_weights":[5.8634862E-2,4.105722E0,-2.6681206E-1,9.552104E0,3.2712817E0,3.8339606E-1,-1.49522E0,5.6471753E0,1.3570858E1,9.320057E0,2.5489514E0,1.420362E0,-1.0523882E0,-8.611693E-2,-2.2028973E0,6.0470505E0,2.2952905E0,1.6135258E1,-7.945633E-2,3.425863E0,1.3526587E1,1.4043894E0,7.7333636E0,1.5944432E0,-4.41616E0,-1.4094995E0,5.239847E-1,-1.004887E1,1.4523725E-1,-5.1745768E0,-1.4674224E0,-2.9251323E0,1.1662462E1,9.198269E0,2.6163862E1,-6.5845644E-1,9.4001085E-1,-1.4814342E0,4.4512925E0,1.5098368E0,1.5135419E1,5.8084184E-1,1.4052345E1,1.0825681E1,-7.1487317E0,1.4666032E0,9.184406E0,-7.861864E0,3.0368087E0,-1.732714E0,1.0850598E0,4.026725E0,2.7273505E-3,1.3990234E0,-1.791397E1,7.105446E0,-1.5773134E-1,-6.512344E0,-2.546576E0,-6.2596333E-1,-3.6520057E0,2.7964275E0,-2.8211281E0,2.3018922E-1,7.7800756E0,4.854552E0,-4.445559E0,9.746637E0,2.7028024E0,-1.2508334E0,1.8541214E0,-7.1028674E-1,1.3897133E0,9.511071E-1,4.743581E0,4.2532796E-1,-1.2577204E0,9.457409E0,2.221622E0,-7.000918E-1,3.6278098E0,-4.295613E0,5.0988006E-3,1.2272534E0,3.176314E-1,4.194096E0,-2.020221E0,-2.6102943E0,2.3450146E0,-1.7676309E0,2.595598E0,-4.5386055E-1,-1.9430518E0,8.262796E-1,-4.2124346E-1,2.022193E0,-1.1744606E0,-7.531369E-2,1.7734867E0,1.9414119E0,-2.8335562E0,-6.7964015E0,-1.6865135E0,3.0404515E0,-1.927435E-1,6.922318E-1,-1.4849813E-1,1.4834198E-1,-2.1352913E0,1.8385257E0,-1.0871861E0,6.032274E-1,-4.3398798E-1,-1.6338968E0,-1.3246813E-1],"categories":[],"categories_nodes":[],"categories_segments":[],"categories_sizes":[],"default_left":[0,0,0,0,0,0,0,0,0,0,0,0,0,0,0,0,0,0,0,0,0,0,0,0,0,0,0,0,0,0,0,0,0,0,0,0,0,0,0,0,0,0,0,0,0,0,0,0,0,0,0,0,0,0,0,0,0,0,0,0,0,0,0,0,0,0,0,0,0,0,0,0,0,0,0,0,0,0,0,0,0,0,0,0,0,0,0,0,0,0,0,0,0,0,0,0,0,0,0,0,0,0,0,0,0,0,0,0,0,0,0,0,0,0,0],"id":7,"left_children":[1,3,5,7,9,11,13,15,17,19,21,23,25,27,29,-1,31,33,35,37,39,41,43,45,47,49,51,53,55,57,59,61,63,65,67,-1,-1,69,-1,71,73,75,77,79,81,83,85,87,89,91,93,95,97,99,101,103,105,107,109,111,113,-1,-1,-1,-1,-1,-1,-1,-1,-1,-1,-1,-1,-1,-1,-1,-1,-1,-1,-1,-1,-1,-1,-1,-1,-1,-1,-1,-1,-1,-1,-1,-1,-1,-1,-1,-1,-1,-1,-1,-1,-1,-1,-1,-1,-1,-1,-1,-1,-1,-1,-1,-1,-1,-1],"loss_changes":[5.397303E3,1.3548794E3,3.030121E3,5.510808E2,1.1384551E3,3.695355E3,1.3091216E3,1.02369763E3,6.663745E2,6.478943E2,1.4073367E3,1.4711382E3,5.8675977E2,1.0156263E3,1.9026177E3,0E0,9.6322565E2,8.7243115E2,3.4062916E1,7.499938E2,2.864751E2,2.043828E3,2.0562568E3,1.3449519E3,1.1024653E3,6.8641003E2,3.5237402E2,9.254503E2,9.0998114E2,5.91624E2,1.2881564E3,1.119088E3,1.0685049E3,2.0847441E3,3.583037E2,0E0,0E0,2.3171988E2,0E0,4.72903E1,6.3194336E1,7.4897894E2,1.1601985E3,6.284512E2,4.1126816E2,1.4704727E3,1.8500485E3,4.4954224E2,7.5290326E2,7.745188E2,4.1105682E2,5.652095E2,2.5490259E2,3.361514E2,2.2228564E2,4.289984E2,3.4534564E2,4.8701367E2,5.829837E2,1.1021498E3,1.1209036E3,0E0,0E0,0E0,0E0,0E0,0E0,0E0,0E0,0E0,0E0,0E0,0E0,0E0,0E0,0E0,0E0,0E0,0E0,0E0,0E0,0E0,0E0,0E0,0E0,0E0,0E0,0E0,0E0,0E0,0E0,0E0,0E0,0E0,0E0,0E0,0E0,0E0,0E0,0E0,0E0,0E0,0E0,0E0,0E0,0E0,0E0,0E0,0E0,0E0,0E0,0E0,0E0,0E0,0E0],"parents":[2147483647,0,0,1,1,2,2,3,3,4,4,5,5,6,6,7,7,8,8,9,9,10,10,11,11,12,12,13,13,14,14,16,16,17,17,18,18,19,19,20,20,21,21,22,22,23,23,24,24,25,25,26,26,27,27,28,28,29,29,30,30,31,31,32,32,33,33,34,34,37,37,39,39,40,40,41,41,42,42,43,43,44,44,45,45,46,46,47,47,48,48,49,49,50,50,51,51,52,52,53,53,54,54,55,55,56,56,57,57,58,58,59,59,60,60],"right_children":[2,4,6,8,10,12,14,16,18,20,22,24,26,28,30,-1,32,34,36,38,40,42,44,46,48,50,52,54,56,58,60,62,64,66,68,-1,-1,70,-1,72,74,76,78,80,82,84,86,88,90,92,94,96,98,100,102,104,106,108,110,112,114,-1,-1,-1,-1,-1,-1,-1,-1,-1,-1,-1,-1,-1,-1,-1,-1,-1,-1,-1,-1,-1,-1,-1,-1,-1,-1,-1,-1,-1,-1,-1,-1,-1,-1,-1,-1,-1,-1,-1,-1,-1,-1,-1,-1,-1,-1,-1,-1,-1,-1,-1,-1,-1,-1],"split_conditions":[4.4858333E-1,1.1771456E2,2.3469128E1,7.4256836E1,-4.374333E0,1.5923584E1,2.662876E2,2.5015752E0,1.4113652E1,-5.830583E0,-4.0999997E-2,1.1500001E1,2.4172419E1,1.1631666E0,2.807257E2,6.0470505E0,1.3339445E1,1.1367109E1,6.6E0,3.374286E2,1.2047653E2,3.1E0,1.6E0,2.3233253E1,1.82E1,5.3E0,2.4567331E1,8.152501E-1,2.8152497E0,1.2586083E1,1.609025E1,-1.6993332E0,-1.6993332E0,1.0783486E1,4E-1,-6.5845644E-1,9.4001085E-1,6E-1,4.4512925E0,1.4799459E1,9.826088E0,-3.8891664E-1,3.2E0,1.396596E2,1.472029E2,1.0783486E1,3.128788E2,3.406544E2,2.9858197E2,3.6999998E0,1.09E1,3.016435E2,2.2963936E1,3.1205997E1,3E-1,3.0009838E1,1.396596E2,3.0786664E0,1.3023583E1,1E-1,2.1206917E1,2.7964275E0,-2.8211281E0,2.3018922E-1,7.7800756E0,4.854552E0,-4.445559E0,9.746637E0,2.7028024E0,-1.2508334E0,1.8541214E0,-7.1028674E-1,1.3897133E0,9.511071E-1,4.743581E0,4.2532796E-1,-1.2577204E0,9.457409E0,2.221622E0,-7.000918E-1,3.6278098E0,-4.295613E0,5.0988006E-3,1.2272534E0,3.176314E-1,4.194096E0,-2.020221E0,-2.6102943E0,2.3450146E0,-1.7676309E0,2.595598E0,-4.5386055E-1,-1.9430518E0,8.262796E-1,-4.2124346E-1,2.022193E0,-1.1744606E0,-7.531369E-2,1.7734867E0,1.9414119E0,-2.8335562E0,-6.7964015E0,-1.6865135E0,3.0404515E0,-1.927435E-1,6.922318E-1,-1.4849813E-1,1.4834198E-1,-2.1352913E0,1.8385257E0,-1.0871861E0,6.032274E-1,-4.3398798E-1,-1.6338968E0,-1.3246813E-1],"split_indices":[0,3,2,3,0,0,3,3,2,0,0,1,0,0,3,0,2,2,1,3,3,1,1,2,1,1,0,0,0,0,0,0,0,2,1,0,0,1,0,2,2,0,1,3,3,2,3,3,3,1,1,3,2,2,1,2,3,0,0,1,0,0,0,0,0,0,0,0,0,0,0,0,0,0,0,0,0,0,0,0,0,0,0,0,0,0,0,0,0,0,0,0,0,0,0,0,0,0,0,0,0,0,0,0,0,0,0,0,0,0,0,0,0,0,0],"split_type":[0,0,0,0,0,0,0,0,0,0,0,0,0,0,0,0,0,0,0,0,0,0,0,0,0,0,0,0,0,0,0,0,0,0,0,0,0,0,0,0,0,0,0,0,0,0,0,0,0,0,0,0,0,0,0,0,0,0,0,0,0,0,0,0,0,0,0,0,0,0,0,0,0,0,0,0,0,0,0,0,0,0,0,0,0,0,0,0,0,0,0,0,0,0,0,0,0,0,0,0,0,0,0,0,0,0,0,0,0,0,0,0,0,0,0],"sum_hessian":[4.096E3,3.04E2,3.792E3,3.9E1,2.65E2,2.48E3,1.312E3,2.1E1,1.8E1,2.7E1,2.38E2,1.44E3,1.04E3,4.39E2,8.73E2,3E0,1.8E1,1.5E1,3E0,1.2E1,1.5E1,1.96E2,4.2E1,1.399E3,4.1E1,8.48E2,1.92E2,9E0,4.3E2,1.72E2,7.01E2,1.2E1,6E0,1E1,5E0,2E0,1E0,9E0,3E0,2E0,1.3E1,1.85E2,1.1E1,3.5E1,7E0,1.377E3,2.2E1,2.8E1,1.3E1,7.51E2,9.7E1,2.4E1,1.68E2,4E0,5E0,1.7E1,4.13E2,1.13E2,5.9E1,5.07E2,1.94E2,4E0,8E0,4E0,2E0,8E0,2E0,3E0,2E0,7E0,2E0,1E0,1E0,1E0,1.2E1,1.58E2,2.7E1,2E0,9E0,3E0,3.2E1,3E0,4E0,1.84E2,1.193E3,1.7E1,5E0,2.7E1,1E0,5E0,8E0,7.19E2,3.2E1,5.8E1,3.9E1,1.8E1,6E0,1.62E2,6E0,3E0,1E0,3E0,2E0,1.2E1,5E0,4.9E1,3.64E2,9E0,1.04E2,6E0,5.3E1,1.2E2,3.87E2,1.24E2,7E1],"tree_param":{"num_deleted":"0","num_feature":"4","num_nodes":"115","size_leaf_vector":"1"}},{"base_weights":[5.1809274E-2,3.03166E0,-1.8781802E-1,7.3657875E0,2.3685145E0,8.6492103E-1,-6.588883E-1,3.5461674E0,9.515713E0,2.6374907E0,-7.9603934E0,2.2944942E0,3.7526667E-2,-1.1224971E0,5.620475E-1,4.686464E0,-4.4211578E-1,1.198768E1,-2.76969E0,7.5849404E0,2.0553598E0,-3.9420865E0,-7.90401E-1,-7.7653575E0,2.6517136E0,-1.406053E0,8.0222076E-1,8.024397E-1,-1.4254423E0,-2.1111262E0,1.030569E0,6.256788E0,-5.411029E0,8.069841E0,2.2910795E1,-1.7887018E0,1.3461889E0,3.9101288E0,9.866991E0,1.2327662E0,5.7864366E0,-4.142754E0,1.3899989E0,-5.3250346E0,-3.7899916E0,1.5269618E1,2.2713025E0,-1.2084069E1,-1.1472619E0,6.1436667E0,3.1049484E-1,1.5963509E0,-6.692424E0,-2.0464053E0,-7.9282534E-1,8.8677435E0,-2.6833637E0,4.816818E0,-2.41779E-2,3.8893228E0,-1.4316909E0,2.7620926E-1,-4.881242E0,2.6789145E0,-8.532212E-1,1.9431657E0,7.619966E0,7.990094E-1,-1.9322434E-1,3.0828858E-2,3.4497511E0,1.2042308E0,3.893194E0,1.783601E-1,3.2429686E0,2.4630322E0,-1.6621279E0,-1.2140837E-1,-1.7428311E0,-2.1734867E0,5.1321917E0,2.2780793E0,8.616979E0,-1.3448678E0,9.1953874E-1,-5.731223E0,3.4523942E0,6.261096E0,-3.952356E-1,4.3404153E-1,4.5295672E0,7.337125E-1,-9.1189355E-2,2.5291078E0,2.0061408E-1,-6.2087864E-1,-3.2401352E0,-5.2201813E-1,-1.5864418E0,3.4131655E-1,-4.730974E-1,-1.3884435E0,1.0660149E0,2.6861584E0,5.737175E-1,1.07169524E-1,-1.2743057E0],"categories":[],"categories_nodes":[],"categories_segments":[],"categories_sizes":[],"default_left":[0,0,0,0,0,0,0,0,0,0,0,0,0,0,0,0,0,0,0,0,0,0,0,0,0,0,0,0,0,0,0,0,0,0,0,0,0,0,0,0,0,0,0,0,0,0,0,0,0,0,0,0,0,0,0,0,0,0,0,0,0,0,0,0,0,0,0,0,0,0,0,0,0,0,0,0,0,0,0,0,0,0,0,0,0,0,0,0,0,0,0,0,0,0,0,0,0,0,0,0,0,0,0,0,0,0,0],"id":8,"left_children":[1,3,5,7,9,11,13,15,17,19,21,23,25,27,29,-1,31,33,35,37,39,-1,41,43,45,47,49,51,53,55,57,59,61,63,65,-1,67,69,71,73,75,77,-1,-1,79,81,83,85,87,89,91,93,95,97,99,-1,101,103,105,-1,-1,-1,-1,-1,-1,-1,-1,-1,-1,-1,-1,-1,-1,-1,-1,-1,-1,-1,-1,-1,-1,-1,-1,-1,-1,-1,-1,-1,-1,-1,-1,-1,-1,-1,-1,-1,-1,-1,-1,-1,-1,-1,-1,-1,-1,-1,-1],"loss_changes":[2.926047E3,8.591721E2,1.8815718E3,2.947317E2,7.600049E2,1.3873629E3,1.4842126E3,7.7746704E2,7.9242993E2,7.3322705E2,2.4959256E2,1.5658284E3,8.2242725E2,1.1091299E3,9.064369E2,0E0,4.6657715E2,7.138086E2,7.372921E1,1.8784363E2,7.110502E2,0E0,9.192379E1,5.281231E2,1.9621155E3,6.990874E2,1.2772113E3,1.5517999E3,6.43407E2,2.0365929E3,2.4561404E3,5.057439E2,5.650695E2,1.8493481E2,4.000244E1,0E0,9.580029E0,3.4554938E2,2.3917773E2,1.1732728E3,1.1984957E3,1.6339428E1,0E0,0E0,9.9033466E2,1.02113257E3,2.185213E3,1.2135474E3,9.7553064E2,1.7026102E3,5.8720825E2,1.4841406E3,4.5241504E2,8.130762E2,1.2355979E3,0E0,1.3142598E3,1.5929854E3,7.779647E2,0E0,0E0,0E0,0E0,0E0,0E0,0E0,0E0,0E0,0E0,0E0,0E0,0E0,0E0,0E0,0E0,0E0,0E0,0E0,0E0,0E0,0E0,0E0,0E0,0E0,0E0,0E0,0E0,0E0,0E0,0E0,0E0,0E0,0E0,0E0,0E0,0E0,0E0,0E0,0E0,0E0,0E0,0E0,0E0,0E0,0E0,0E0,0E0],"parents":[2147483647,0,0,1,1,2,2,3,3,4,4,5,5,6,6,7,7,8,8,9,9,10,10,11,11,12,12,13,13,14,14,16,16,17,17,18,18,19,19,20,20,22,22,23,23,24,24,25,25,26,26,27,27,28,28,29,29,30,30,31,31,32,32,33,33,34,34,36,36,37,37,38,38,39,39,40,40,41,41,44,44,45,45,46,46,47,47,48,48,49,49,50,50,51,51,52,52,53,53,54,54,56,56,57,57,58,58],"right_children":[2,4,6,8,10,12,14,16,18,20,22,24,26,28,30,-1,32,34,36,38,40,-1,42,44,46,48,50,52,54,56,58,60,62,64,66,-1,68,70,72,74,76,78,-1,-1,80,82,84,86,88,90,92,94,96,98,100,-1,102,104,106,-1,-1,-1,-1,-1,-1,-1,-1,-1,-1,-1,-1,-1,-1,-1,-1,-1,-1,-1,-1,-1,-1,-1,-1,-1,-1,-1,-1,-1,-1,-1,-1,-1,-1,-1,-1,-1,-1,-1,-1,-1,-1,-1,-1,-1,-1,-1,-1],"split_conditions":[4.4858333E-1,1.1771456E2,1.7315329E2,5.5541748E1,3.370377E1,1.0169416E1,3.1623328E2,2.5015752E0,1.6000001E0,-4.374333E0,-1.2368333E0,6.8055096E0,1.3081496E2,4.0277505E0,3.854833E0,4.686464E0,-1.6993332E0,6E-1,-3.8891664E-1,-5.830583E0,-4.0999997E-2,-3.9420865E0,2.9764294E2,1.1631666E0,8.152501E-1,1.0525666E1,1.3538449E2,3.1014984E2,2.852488E2,7.928177E0,8.3715E0,1.3849477E1,2.1914925E1,4E-1,-3.3430834E0,-1.7887018E0,1.4650024E-1,3.374286E2,1.3247552E2,3.1E0,1.6E0,-7.055834E-1,1.3899989E0,-5.3250346E0,2.1542923E1,2.3000002E0,1.8839998E0,1E-1,1.0579831E1,1.6595179E1,1.3567334E1,1.27279215E1,1.8504139E1,2.8255844E2,1E-1,8.8677435E0,1.6E0,1E-1,2.7059933E1,3.8893228E0,-1.4316909E0,2.7620926E-1,-4.881242E0,2.6789145E0,-8.532212E-1,1.9431657E0,7.619966E0,7.990094E-1,-1.9322434E-1,3.0828858E-2,3.4497511E0,1.2042308E0,3.893194E0,1.783601E-1,3.2429686E0,2.4630322E0,-1.6621279E0,-1.2140837E-1,-1.7428311E0,-2.1734867E0,5.1321917E0,2.2780793E0,8.616979E0,-1.3448678E0,9.1953874E-1,-5.731223E0,3.4523942E0,6.261096E0,-3.952356E-1,4.3404153E-1,4.5295672E0,7.337125E-1,-9.1189355E-2,2.5291078E0,2.0061408E-1,-6.2087864E-1,-3.2401352E0,-5.2201813E-1,-1.5864418E0,3.4131655E-1,-4.730974E-1,-1.3884435E0,1.0660149E0,2.6861584E0,5.737175E-1,1.07169524E-1,-1.2743057E0],"split_indices":[0,3,3,3,2,0,3,3,1,0,0,3,3,0,0,0,0,1,0,0,0,0,3,0,0,0,3,3,3,2,0,2,3,1,0,0,0,3,3,1,1,0,0,0,2,1,0,1,0,2,0,2,2,3,1,0,1,1,2,0,0,0,0,0,0,0,0,0,0,0,0,0,0,0,0,0,0,0,0,0,0,0,0,0,0,0,0,0,0,0,0,0,0,0,0,0,0,0,0,0,0,0,0,0,0,0,0],"split_type":[0,0,0,0,0,0,0,0,0,0,0,0,0,0,0,0,0,0,0,0,0,0,0,0,0,0,0,0,0,0,0,0,0,0,0,0,0,0,0,0,0,0,0,0,0,0,0,0,0,0,0,0,0,0,0,0,0,0,0,0,0,0,0,0,0,0,0,0,0,0,0,0,0,0,0,0,0,0,0,0,0,0,0,0,0,0,0,0,0,0,0,0,0,0,0,0,0,0,0,0,0,0,0,0,0,0,0],"sum_hessian":[4.096E3,3.04E2,3.792E3,3.9E1,2.65E2,1.172E3,2.62E3,1.5E1,2.4E1,2.59E2,6E0,4.29E2,7.43E2,1.899E3,7.21E2,3E0,1.2E1,2E1,4E0,2.6E1,2.33E2,3E0,3E0,1.4E1,4.15E2,2.57E2,4.86E2,2.58E2,1.641E3,1.07E2,6.14E2,5E0,7E0,1.6E1,4E0,2E0,2E0,1.1E1,1.5E1,1.92E2,4.1E1,2E0,1E0,3E0,1.1E1,1.1E1,4.04E2,5E0,2.52E2,4E1,4.46E2,2.34E2,2.4E1,8.27E2,8.14E2,1E0,1.06E2,1.33E2,4.81E2,3E0,2E0,5E0,2E0,1.5E1,1E0,1E0,3E0,1E0,1E0,8E0,3E0,6E0,9E0,1.81E2,1.1E1,3.4E1,7E0,1E0,1E0,1E1,1E0,8E0,3E0,4.2E1,3.62E2,4E0,1E0,1E0,2.51E2,2.7E1,1.3E1,9.9E1,3.47E2,2.7E1,2.07E2,1.2E1,1.2E1,7.57E2,7E1,2.35E2,5.79E2,8.1E1,2.5E1,5.4E1,7.9E1,4.42E2,3.9E1],"tree_param":{"num_deleted":"0","num_feature":"4","num_nodes":"107","size_leaf_vector":"1"}},{"base_weights":[4.741905E-2,2.1914368E0,-1.2499668E-1,2.3806372E0,-6.2031794E0,2.5491112E-1,-8.427623E-1,1.5887862E0,4.643002E0,-3.0551171E0,-6.7184067E-1,1.1941042E0,-3.2666042E-1,-7.6174676E-1,-6.320255E0,1.8602958E0,-1.0621084E1,7.5760045E0,1.2674316E0,-3.5213406E0,1.181499E0,8.984128E-1,6.078278E0,-3.762619E0,-2.1306539E-1,-8.7150234E-1,2.378611E0,3.1617574E-2,-2.7762961E0,5.238038E0,1.0052903E0,-9.158593E-2,-3.9371135E0,5.9028144E0,1.8442413E1,-2.6156666E0,4.6988487E0,-1.03197105E-1,-1.4814062E0,1.1941677E0,-5.143704E0,-4.463161E0,7.170358E0,-6.7461506E-2,-1.2133812E1,1.2279274E1,-2.9755747E-1,-5.460559E-1,-2.0873926E0,6.344213E-1,5.111476E0,2.0538611E0,-4.0634575E0,7.50335E-1,3.2772658E0,-3.120513E0,4.6179545E-1,2.8338976E0,1.984681E-1,7.5430713E0,-1.2543321E0,-2.100068E0,1.5823165E0,4.5194955E0,7.1741335E-2,5.386244E-1,-2.8896087E-1,-2.7366064E0,-2.1930133E-1,1.0733628E1,1.593134E0,-2.565745E0,2.2583854E0,-4.2374625E0,2.3611593E0,6.610815E0,6.306244E-1,-1.4053677E-1,6.491961E-1,-2.794991E0,-1.368009E-1,-6.924569E-1,1.9046255E0,7.292479E-1,-5.890064E-1,-5.487901E-1,2.2163446E0,-1.7723335E0,-2.5939524E-1],"categories":[],"categories_nodes":[],"categories_segments":[],"categories_sizes":[],"default_left":[0,0,0,0,0,0,0,0,0,0,0,0,0,0,0,0,0,0,0,0,0,0,0,0,0,0,0,0,0,0,0,0,0,0,0,0,0,0,0,0,0,0,0,0,0,0,0,0,0,0,0,0,0,0,0,0,0,0,0,0,0,0,0,0,0,0,0,0,0,0,0,0,0,0,0,0,0,0,0,0,0,0,0,0,0,0,0,0,0],"id":9,"left_children":[1,3,5,7,9,11,13,15,17,-1,19,21,23,25,27,29,31,33,35,37,-1,39,41,43,45,47,49,51,-1,53,55,-1,-1,57,59,61,63,-1,-1,65,67,-1,69,71,73,75,77,79,81,83,85,-1,87,-1,-1,-1,-1,-1,-1,-1,-1,-1,-1,-1,-1,-1,-1,-1,-1,-1,-1,-1,-1,-1,-1,-1,-1,-1,-1,-1,-1,-1,-1,-1,-1,-1,-1,-1,-1],"loss_changes":[1.5147806E3,4.99188E2,1.034508E3,5.2826855E2,1.4728232E2,1.3555321E3,5.7784503E2,7.590245E2,7.527407E2,0E0,6.641492E1,1.3650928E3,5.9754016E2,4.484229E2,3.543919E2,6.2720374E2,1.2507654E2,6.365825E2,5.0529822E2,1.1805237E1,0E0,1.607282E3,1.342468E3,1.5148923E3,1.5710769E3,4.9428552E2,2.064891E2,2.2316295E2,0E0,6.57433E2,1.088143E3,0E0,0E0,6.80931E2,8.631466E2,6.596215E2,9.2099677E2,0E0,0E0,1.1107604E3,7.306467E2,0E0,2.576871E3,2.3200361E3,7.086189E2,9.466444E2,6.219287E2,7.768799E2,5.0640027E2,1.3543901E2,2.82107E2,0E0,2.4389961E1,0E0,0E0,0E0,0E0,0E0,0E0,0E0,0E0,0E0,0E0,0E0,0E0,0E0,0E0,0E0,0E0,0E0,0E0,0E0,0E0,0E0,0E0,0E0,0E0,0E0,0E0,0E0,0E0,0E0,0E0,0E0,0E0,0E0,0E0,0E0,0E0],"parents":[2147483647,0,0,1,1,2,2,3,3,4,4,5,5,6,6,7,7,8,8,10,10,11,11,12,12,13,13,14,14,15,15,16,16,17,17,18,18,19,19,21,21,22,22,23,23,24,24,25,25,26,26,27,27,29,29,30,30,33,33,34,34,35,35,36,36,39,39,40,40,42,42,43,43,44,44,45,45,46,46,47,47,48,48,49,49,50,50,52,52],"right_children":[2,4,6,8,10,12,14,16,18,-1,20,22,24,26,28,30,32,34,36,38,-1,40,42,44,46,48,50,52,-1,54,56,-1,-1,58,60,62,64,-1,-1,66,68,-1,70,72,74,76,78,80,82,84,86,-1,88,-1,-1,-1,-1,-1,-1,-1,-1,-1,-1,-1,-1,-1,-1,-1,-1,-1,-1,-1,-1,-1,-1,-1,-1,-1,-1,-1,-1,-1,-1,-1,-1,-1,-1,-1,-1],"split_conditions":[4.4858333E-1,3.370377E1,2.3469128E1,2.3469128E1,-1.2368333E0,1.0831916E1,2.2000002E1,2.334455E1,2.763761E2,-3.0551171E0,2.9764294E2,2.266857E1,1.1418251E1,2.5204832E1,2.856658E2,1.0783486E1,-2.7055833E0,1.6490453E2,3.1623328E2,-7.055834E-1,1.181499E0,2.1980644E1,5.7566667E-1,1.9130875E1,1.1500667E1,1.7020332E1,2E-1,2.8202042E1,-2.7762961E0,1.8486447E2,1.108572E1,-9.158593E-2,-3.9371135E0,1.4091394E2,-7.055834E-1,-2.0674996E-1,3.2035733E2,-1.03197105E-1,-1.4814062E0,1.0000001E0,2.8369138E2,-4.463161E0,1.2964998E0,1.5072783E1,3.3848587E2,1E-1,7.8E0,1.2693954E2,1.82E1,2.7155552E1,2.5376808E1,2.0538611E0,1.4664085E1,7.50335E-1,3.2772658E0,-3.120513E0,4.6179545E-1,2.8338976E0,1.984681E-1,7.5430713E0,-1.2543321E0,-2.100068E0,1.5823165E0,4.5194955E0,7.1741335E-2,5.386244E-1,-2.8896087E-1,-2.7366064E0,-2.1930133E-1,1.0733628E1,1.593134E0,-2.565745E0,2.2583854E0,-4.2374625E0,2.3611593E0,6.610815E0,6.306244E-1,-1.4053677E-1,6.491961E-1,-2.794991E0,-1.368009E-1,-6.924569E-1,1.9046255E0,7.292479E-1,-5.890064E-1,-5.487901E-1,2.2163446E0,-1.7723335E0,-2.5939524E-1],"split_indices":[0,2,2,2,0,0,1,2,3,0,3,2,0,0,3,2,0,3,3,0,0,2,0,2,0,0,1,2,0,3,2,0,0,3,0,0,3,0,0,1,3,0,0,2,3,1,1,3,1,2,2,0,0,0,0,0,0,0,0,0,0,0,0,0,0,0,0,0,0,0,0,0,0,0,0,0,0,0,0,0,0,0,0,0,0,0,0,0,0],"split_type":[0,0,0,0,0,0,0,0,0,0,0,0,0,0,0,0,0,0,0,0,0,0,0,0,0,0,0,0,0,0,0,0,0,0,0,0,0,0,0,0,0,0,0,0,0,0,0,0,0,0,0,0,0,0,0,0,0,0,0,0,0,0,0,0,0,0,0,0,0,0,0,0,0,0,0,0,0,0,0,0,0,0,0,0,0,0,0,0,0],"sum_hessian":[4.096E3,3.04E2,3.792E3,2.98E2,6E0,2.48E3,1.312E3,2.22E2,7.6E1,3E0,3E0,9.48E2,1.532E3,1.294E3,1.8E1,2.18E2,4E0,4E1,3.6E1,2E0,1E0,8.95E2,5.3E1,4.8E1,1.484E3,1.251E3,4.3E1,6E0,1.2E1,4.3E1,1.75E2,1E0,3E0,3.6E1,4E0,1.7E1,1.9E1,1E0,1E0,8.54E2,4.1E1,2E0,5.1E1,3.4E1,1.4E1,9E0,1.475E3,9.88E2,2.63E2,2.7E1,1.6E1,2E0,4E0,3E1,1.3E1,7E0,1.68E2,2.1E1,1.5E1,3E0,1E0,1.1E1,6E0,5E0,1.4E1,6.68E2,1.86E2,2.1E1,2E1,2E0,4.9E1,1.6E1,1.8E1,1.3E1,1E0,4E0,5E0,1.38E3,9.5E1,9E0,9.79E2,2.57E2,6E0,1.6E1,1.1E1,4E0,1.2E1,2E0,2E0],"tree_param":{"num_deleted":"0","num_feature":"4","num_nodes":"89","size_leaf_vector":"1"}},{"base_weights":[3.693629E-2,9.239205E-1,-2.7137652E-1,1.3760945E1,8.498273E-1,-4.9773586E-1,7.279874E-1,4.990041E0,8.642321E0,9.1524863E-1,-1.303246E1,2.6981947E0,-5.767355E-1,1.3581994E0,-9.0636945E-1,1.8913119E0,-4.0093232E-2,1.0233234E0,-4.4188538E0,-4.972743E0,-1.5434872E0,-2.2556846E0,4.8749924E0,-5.052437E-1,-4.1770787E0,1.6307847E0,-8.578348E0,-2.4221988E0,2.4840748E0,8.5937136E-1,4.3527746E0,-8.783324E0,3.4733027E-1,-7.331038E0,4.0264535E0,1.4454441E1,1.009561E0,1.6231868E0,-6.272118E-1,-4.715137E0,-2.1049476E0,3.058134E0,4.6320963E-1,2.2023792E0,-3.8689258E0,-4.365365E0,3.3399346E-1,9.25351E0,-2.1748559E-1,2.0104344E-1,1.1258492E0,2.2965188E0,-4.728959E-1,-3.913997E0,-1.6661229E0,-9.1313475E-1,1.5076267E0,1.0562768E0,-2.781423E0,-2.969473E0,5.270449E0,1.2158582E0,-1.467646E0,2.3611964E-1,3.805206E0,-1.5667664E-1,-7.214322E-1,3.9352288E0,-9.6657795E-1,2.6889017E0,5.255749E-1,-3.6173203E0,2.8005394E-1,1.2868683E0,-6.088749E-1,2.6274042E0,-1.5463054E0,2.8068361E0,-2.2440645E-1,1.2891496E0,6.1710253E0,-9.7288114E-1,8.964388E-1],"categories":[],"categories_nodes":[],"categories_segments":[],"categories_sizes":[],"default_left":[0,0,0,0,0,0,0,0,0,0,0,0,0,0,0,0,0,0,0,0,0,0,0,0,0,0,0,0,0,0,0,0,0,0,0,0,0,0,0,0,0,0,0,0,0,0,0,0,0,0,0,0,0,0,0,0,0,0,0,0,0,0,0,0,0,0,0,0,0,0,0,0,0,0,0,0,0,0,0,0,0,0,0],"id":10,"left_children":[1,3,5,7,9,11,13,15,-1,17,19,21,23,25,27,-1,-1,29,31,-1,-1,33,35,37,39,41,43,45,47,49,51,53,55,57,-1,59,61,63,65,-1,67,69,71,73,-1,75,77,79,81,-1,-1,-1,-1,-1,-1,-1,-1,-1,-1,-1,-1,-1,-1,-1,-1,-1,-1,-1,-1,-1,-1,-1,-1,-1,-1,-1,-1,-1,-1,-1,-1,-1,-1],"loss_changes":[1.1206516E3,9.936569E2,6.882833E2,6.4809204E2,9.6735266E2,6.276999E2,5.8008606E2,3.4513664E1,0E0,6.0867523E2,5.4459045E1,6.580121E2,6.210425E2,1.1136641E3,8.128926E2,0E0,0E0,5.5741394E2,4.3988998E2,0E0,0E0,1.6101725E3,1.5406132E3,6.175694E2,1.090803E3,6.5853235E2,5.4047406E2,5.8523364E2,8.981264E2,5.346017E2,9.518864E2,7.899878E1,1.8979959E2,3.4849658E2,0E0,1.083823E3,5.7660846E2,1.1830344E3,4.1795917E2,0E0,7.393895E2,1.35722E3,1.3008689E3,4.4037518E1,0E0,7.078082E2,4.5605405E2,6.968508E2,3.5883386E2,0E0,0E0,0E0,0E0,0E0,0E0,0E0,0E0,0E0,0E0,0E0,0E0,0E0,0E0,0E0,0E0,0E0,0E0,0E0,0E0,0E0,0E0,0E0,0E0,0E0,0E0,0E0,0E0,0E0,0E0,0E0,0E0,0E0,0E0],"parents":[2147483647,0,0,1,1,2,2,3,3,4,4,5,5,6,6,7,7,9,9,10,10,11,11,12,12,13,13,14,14,17,17,18,18,21,21,22,22,23,23,24,24,25,25,26,26,27,27,28,28,29,29,30,30,31,31,32,32,33,33,35,35,36,36,37,37,38,38,40,40,41,41,42,42,43,43,45,45,46,46,47,47,48,48],"right_children":[2,4,6,8,10,12,14,16,-1,18,20,22,24,26,28,-1,-1,30,32,-1,-1,34,36,38,40,42,44,46,48,50,52,54,56,58,-1,60,62,64,66,-1,68,70,72,74,-1,76,78,80,82,-1,-1,-1,-1,-1,-1,-1,-1,-1,-1,-1,-1,-1,-1,-1,-1,-1,-1,-1,-1,-1,-1,-1,-1,-1,-1,-1,-1,-1,-1,-1,-1,-1,-1],"split_conditions":[1.5431941E2,6.6818557E0,3.262098E2,7.763167E0,3.5900864E1,-7.055834E-1,1.7629833E1,5.3995E0,8.642321E0,1.3E1,1.4835278E2,1.8486447E2,3.2401834E2,3.5813742E2,3E-1,1.8913119E0,-4.0093232E-2,1.516726E2,1.45465E1,-4.972743E0,-1.5434872E0,5E-1,2.852488E2,1.0685391E1,5.5703335E0,1.7782688E1,2.7152498E0,2.1206917E1,8E-1,3.5E0,2.1542923E1,8.123582E0,1.105194E2,8.350138E0,4.0264535E0,6.6818557E0,4E-1,3.140839E2,1.0099999E1,-4.715137E0,6.9307513E0,3.3179843E2,1.8089775E1,3E-1,-3.8689258E0,3.268024E2,3.304664E2,3.4247952E2,3.3937E2,2.0104344E-1,1.1258492E0,2.2965188E0,-4.728959E-1,-3.913997E0,-1.6661229E0,-9.1313475E-1,1.5076267E0,1.0562768E0,-2.781423E0,-2.969473E0,5.270449E0,1.2158582E0,-1.467646E0,2.3611964E-1,3.805206E0,-1.5667664E-1,-7.214322E-1,3.9352288E0,-9.6657795E-1,2.6889017E0,5.255749E-1,-3.6173203E0,2.8005394E-1,1.2868683E0,-6.088749E-1,2.6274042E0,-1.5463054E0,2.8068361E0,-2.2440645E-1,1.2891496E0,6.1710253E0,-9.7288114E-1,8.964388E-1],"split_indices":[3,2,3,0,2,0,0,0,0,1,3,3,3,3,1,0,0,3,0,0,0,1,3,2,0,2,0,0,1,1,2,0,3,2,0,2,1,3,1,0,0,3,2,1,0,3,3,3,3,0,0,0,0,0,0,0,0,0,0,0,0,0,0,0,0,0,0,0,0,0,0,0,0,0,0,0,0,0,0,0,0,0,0],"split_type":[0,0,0,0,0,0,0,0,0,0,0,0,0,0,0,0,0,0,0,0,0,0,0,0,0,0,0,0,0,0,0,0,0,0,0,0,0,0,0,0,0,0,0,0,0,0,0,0,0,0,0,0,0,0,0,0,0,0,0,0,0,0,0,0,0,0,0,0,0,0,0,0,0,0,0,0,0,0,0,0,0,0,0],"sum_hessian":[4.096E3,1.056E3,3.04E3,5E0,1.051E3,2.479E3,5.61E2,4E0,1E0,1.047E3,4E0,5.9E1,2.42E3,4.05E2,1.56E2,3E0,1E0,1.027E3,2E1,2E0,2E0,1.8E1,4.1E1,2.374E3,4.6E1,3.95E2,1E1,1.08E2,4.8E1,9.8E2,4.7E1,1E1,1E1,1.4E1,4E0,1.1E1,3E1,1.28E2,2.246E3,6E0,4E1,1.77E2,2.18E2,3E0,7E0,6.3E1,4.5E1,1.3E1,3.5E1,9.21E2,5.9E1,3E1,1.7E1,3E0,7E0,6E0,4E0,2E0,1.2E1,1E0,1E1,2E1,1E1,1.2E2,8E0,2.122E3,1.24E2,2E0,3.8E1,3.1E1,1.46E2,7E0,2.11E2,2E0,1E0,3E0,6E1,4E0,4.1E1,1E1,3E0,1.8E1,1.7E1],"tree_param":{"num_deleted":"0","num_feature":"4","num_nodes":"83","size_leaf_vector":"1"}},{"base_weights":[2.967426E-2,3.0825776E-1,-5.5013686E-1,4.2406106E-1,-2.3914442E0,-1.0180252E0,1.5803044E-1,1.5612061E0,1.7874326E-1,-2.7936318E0,9.36712E0,4.5232594E-1,-1.3800279E0,2.9682703E-2,2.275392E0,1.1294543E0,1.4611165E1,9.537705E-2,4.886424E0,-3.845167E0,-7.749283E-2,3.29855E0,6.7244744E-1,1.0433573E1,1.9349702E-1,-1.4786359E0,3.5124044E0,-1.6410562E0,3.2688695E-1,1.3942794E0,-6.2569313E0,1.7187706E1,-1.4242325E0,6.36517E-2,9.789709E0,1.2477908E1,-2.569807E0,-6.016816E0,-1.407874E0,8.153842E0,-2.2906408E0,4.565735E-1,6.054686E0,-4.4236355E0,7.160547E-1,-9.160677E0,-1.4150172E0,-2.879198E0,5.4046593E0,-5.3041047E-1,-5.375444E0,5.894485E0,7.779953E-2,3.2543668E-1,4.849104E0,-2.6877007E0,-7.304953E-1,1.2379532E0,5.7561994E0,8.299851E-1,-1.4708897E0,-1.3901933E-1,1.6844074E-1,-1.2775664E0,3.852254E0,-4.5047145E0,4.4518614E0,-2.7112255E0,5.656746E-2,-4.4119108E-1,-2.33588E0,-1.6473578E0,3.2952958E-1,5.3042417E0,2.4206863E-1,-1.4155039E0,1.5000413E-1,3.546856E-1,-1.4922753E-1,1.5543375E0,-2.417095E0,1.4403611E0,-8.807895E-2,-3.3618538E0,-1.4680023E-1,-1.8883787E0,-3.9529905E-1,5.717275E0,7.29293E-1,-2.1962135E0,5.8099046E-2,1.7955827E0,-2.1508842E0,3.782737E0,-8.901716E-1,-1.7555113E0,6.1584644E-2],"categories":[],"categories_nodes":[],"categories_segments":[],"categories_sizes":[],"default_left":[0,0,0,0,0,0,0,0,0,0,0,0,0,0,0,0,0,0,0,0,0,0,0,0,0,0,0,0,0,0,0,0,0,0,0,0,0,0,0,0,0,0,0,0,0,0,0,0,0,0,0,0,0,0,0,0,0,0,0,0,0,0,0,0,0,0,0,0,0,0,0,0,0,0,0,0,0,0,0,0,0,0,0,0,0,0,0,0,0,0,0,0,0,0,0,0,0],"id":11,"left_children":[1,3,5,7,9,11,13,15,17,19,21,23,25,27,-1,29,31,33,35,37,39,-1,-1,41,43,45,47,49,51,53,55,57,59,61,63,65,67,69,71,73,75,77,-1,79,81,83,85,-1,87,89,91,93,95,-1,-1,-1,-1,-1,-1,-1,-1,-1,-1,-1,-1,-1,-1,-1,-1,-1,-1,-1,-1,-1,-1,-1,-1,-1,-1,-1,-1,-1,-1,-1,-1,-1,-1,-1,-1,-1,-1,-1,-1,-1,-1,-1,-1],"loss_changes":[6.619408E2,8.663862E2,4.4084732E2,7.4036487E2,5.652911E2,4.2697345E2,5.0496472E2,2.6372734E3,8.570623E2,3.167309E2,2.1757812E1,4.0874738E2,3.1539783E2,2.5973593E2,0E0,9.026618E2,6.4421655E2,6.600073E2,2.1830122E3,4.1496472E2,6.016268E2,0E0,0E0,3.7983688E2,3.7955157E2,2.9542004E2,3.7436066E2,3.248078E2,6.1528894E2,2.002843E3,1.4341974E2,2.6035132E2,5.7301167E1,5.622661E2,3.5472565E2,1.4564915E3,3.5850476E2,3.2640735E2,4.0515942E2,4.75692E2,1.7850627E2,2.6650825E0,0E0,6.0010315E2,5.829748E2,8.320264E1,2.8955945E2,0E0,4.4086496E2,3.062519E2,4.0980713E2,1.1679763E3,3.2321832E2,0E0,0E0,0E0,0E0,0E0,0E0,0E0,0E0,0E0,0E0,0E0,0E0,0E0,0E0,0E0,0E0,0E0,0E0,0E0,0E0,0E0,0E0,0E0,0E0,0E0,0E0,0E0,0E0,0E0,0E0,0E0,0E0,0E0,0E0,0E0,0E0,0E0,0E0,0E0,0E0,0E0,0E0,0E0,0E0],"parents":[2147483647,0,0,1,1,2,2,3,3,4,4,5,5,6,6,7,7,8,8,9,9,10,10,11,11,12,12,13,13,15,15,16,16,17,17,18,18,19,19,20,20,23,23,24,24,25,25,26,26,27,27,28,28,29,29,30,30,31,31,32,32,33,33,34,34,35,35,36,36,37,37,38,38,39,39,40,40,41,41,43,43,44,44,45,45,46,46,48,48,49,49,50,50,51,51,52,52],"right_children":[2,4,6,8,10,12,14,16,18,20,22,24,26,28,-1,30,32,34,36,38,40,-1,-1,42,44,46,48,50,52,54,56,58,60,62,64,66,68,70,72,74,76,78,-1,80,82,84,86,-1,88,90,92,94,96,-1,-1,-1,-1,-1,-1,-1,-1,-1,-1,-1,-1,-1,-1,-1,-1,-1,-1,-1,-1,-1,-1,-1,-1,-1,-1,-1,-1,-1,-1,-1,-1,-1,-1,-1,-1,-1,-1,-1,-1,-1,-1,-1,-1],"split_conditions":[1.647775E1,1.0099999E1,2.189025E1,1.3894876E2,3.406544E2,1.5033334E2,3.4245445E1,1.385481E2,1.6175669E1,1.2494416E1,7.8652515E0,7.928177E0,3.5506677E2,1.3804611E2,2.275392E0,2.8312117E1,1.8000002E0,9.5E0,2.8137988E2,2.9170093E2,1.3648585E1,3.29855E0,6.7244744E-1,7.729527E0,9.693296E0,1.511436E2,1.108572E1,1.2924483E2,9.422101E0,2.7288855E1,3E-1,1.8839998E0,-4.374333E0,2.852488E2,2.0656502E2,1.420118E2,1.603213E1,6.05275E0,1.3E1,2.61489E2,1.4888165E1,1.7020332E1,6.054686E0,5.5541748E1,1.1734564E1,2.1073582E1,1.6598585E1,-2.879198E0,1.27279215E1,8.942214E0,2.2283997E1,2.3504831E1,1.0163227E1,3.2543668E-1,4.849104E0,-2.6877007E0,-7.304953E-1,1.2379532E0,5.7561994E0,8.299851E-1,-1.4708897E0,-1.3901933E-1,1.6844074E-1,-1.2775664E0,3.852254E0,-4.5047145E0,4.4518614E0,-2.7112255E0,5.656746E-2,-4.4119108E-1,-2.33588E0,-1.6473578E0,3.2952958E-1,5.3042417E0,2.4206863E-1,-1.4155039E0,1.5000413E-1,3.546856E-1,-1.4922753E-1,1.5543375E0,-2.417095E0,1.4403611E0,-8.807895E-2,-3.3618538E0,-1.4680023E-1,-1.8883787E0,-3.9529905E-1,5.717275E0,7.29293E-1,-2.1962135E0,5.8099046E-2,1.7955827E0,-2.1508842E0,3.782737E0,-8.901716E-1,-1.7555113E0,6.1584644E-2],"split_indices":[0,1,0,3,3,3,2,3,0,0,0,2,3,3,0,2,1,1,3,3,0,0,0,2,2,3,2,3,2,2,1,0,0,3,3,3,2,0,1,3,0,0,0,3,2,0,0,0,2,2,0,0,2,0,0,0,0,0,0,0,0,0,0,0,0,0,0,0,0,0,0,0,0,0,0,0,0,0,0,0,0,0,0,0,0,0,0,0,0,0,0,0,0,0,0,0,0],"split_type":[0,0,0,0,0,0,0,0,0,0,0,0,0,0,0,0,0,0,0,0,0,0,0,0,0,0,0,0,0,0,0,0,0,0,0,0,0,0,0,0,0,0,0,0,0,0,0,0,0,0,0,0,0,0,0,0,0,0,0,0,0,0,0,0,0,0,0,0,0,0,0,0,0,0,0,0,0,0,0,0,0,0,0,0,0,0,0,0,0,0,0,0,0,0,0,0,0],"sum_hessian":[4.096E3,2.767E3,1.329E3,2.654E3,1.13E2,8E2,5.29E2,4.7E2,2.184E3,1.1E2,3E0,1.58E2,6.42E2,5.21E2,8E0,4.56E2,1.4E1,2.147E3,3.7E1,7.9E1,3.1E1,2E0,1E0,3E0,1.55E2,6.3E2,1.2E1,7.8E1,4.43E2,4.41E2,1.5E1,1.2E1,2E0,2.141E3,6E0,1.8E1,1.9E1,4.1E1,3.8E1,6E0,2.5E1,2E0,1E0,1.5E1,1.4E2,4E0,6.26E2,1E0,1.1E1,6.1E1,1.7E1,1.8E1,4.25E2,4.33E2,8E0,8E0,7E0,2E0,1E1,1E0,1E0,1.04E3,1.101E3,1E0,5E0,1E0,1.7E1,5E0,1.4E1,1.2E1,2.9E1,1.4E1,2.4E1,2E0,4E0,1.3E1,1.2E1,1E0,1E0,4E0,1.1E1,2.7E1,1.13E2,3E0,1E0,1.1E1,6.15E2,1E0,1E1,5E0,5.6E1,2E0,1.5E1,1E1,8E0,8E0,4.17E2],"tree_param":{"num_deleted":"0","num_feature":"4","num_nodes":"97","size_leaf_vector":"1"}},{"base_weights":[2.508433E-2,6.898852E-1,-1.6549283E-1,5.035126E-1,9.432703E0,-2.844489E0,-5.87686E-2,8.695993E0,3.5398626E-1,5.3170395E0,1.7918339E0,3.1684837E0,-3.3514383E0,2.2692225E0,-1.7770272E-1,6.3779254E0,4.984495E0,1.2077231E0,-3.0028525E-1,4.120956E0,-1.737843E0,-2.1732664E0,4.907097E0,-2.1040747E0,-5.5752745E0,-3.165202E0,5.215153E0,-1.04128644E-1,-1.9851627E0,8.828814E0,2.665778E0,9.160532E-1,1.4728788E1,-7.2796073E0,1.6167481E-1,-3.2039118E0,8.317375E0,-4.9376655E0,4.0799537E0,9.495409E-1,-4.453247E0,-8.142819E0,-7.531792E-1,9.682691E0,-4.705247E0,7.4898143E0,-3.3736105E0,-2.2551706E-1,1.2944707E0,-9.027872E0,-1.4400522E0,1.248673E0,3.2388923E0,1.5453328E0,-7.0951E-1,3.85573E-1,-1.3610712E0,-6.4888005E-3,5.89476E0,3.5968049E0,-2.7065783E0,5.3127766E-1,-2.678521E-1,-1.4624867E0,2.7138293E-1,3.2828038E0,6.133538E-1,-5.3491976E-2,-2.1818304E0,2.663647E-1,1.5696145E0,1.642056E0,-1.2597846E0,-4.5422626E0,-7.799282E-1,-2.9196515E0,-3.6688587E-1,-2.3315134E0,7.5166005E-1,4.021261E0,-1.3387316E0,1.1765397E-1,-2.2539783E0,-1.9291572E-1,2.6565106E0,7.6542473E0,-1.828112E0,5.6492794E-1,-8.8385075E-2,8.403593E-1,-2.2310327E-1,-3.951208E0,-1.172412E0,1.269809E0,-6.603494E-1],"categories":[],"categories_nodes":[],"categories_segments":[],"categories_sizes":[],"default_left":[0,0,0,0,0,0,0,0,0,0,0,0,0,0,0,0,0,0,0,0,0,0,0,0,0,0,0,0,0,0,0,0,0,0,0,0,0,0,0,0,0,0,0,0,0,0,0,0,0,0,0,0,0,0,0,0,0,0,0,0,0,0,0,0,0,0,0,0,0,0,0,0,0,0,0,0,0,0,0,0,0,0,0,0,0,0,0,0,0,0,0,0,0,0,0],"id":12,"left_children":[1,3,5,7,9,11,13,15,17,-1,19,21,23,25,27,29,-1,31,33,35,-1,37,-1,39,41,43,45,47,49,51,53,55,57,59,61,63,65,67,69,71,73,75,77,79,81,83,85,87,89,91,93,-1,-1,-1,-1,-1,-1,-1,-1,-1,-1,-1,-1,-1,-1,-1,-1,-1,-1,-1,-1,-1,-1,-1,-1,-1,-1,-1,-1,-1,-1,-1,-1,-1,-1,-1,-1,-1,-1,-1,-1,-1,-1,-1,-1],"loss_changes":[5.191871E2,1.4829121E3,9.104683E2,1.0932896E3,1.1718663E3,3.8250806E2,8.487562E2,1.8773901E2,4.9190924E2,0E0,2.1819308E2,7.400451E2,3.0172363E2,2.4019133E3,3.875694E2,1.0383722E2,0E0,1.4929971E3,1.6100367E3,3.0329205E2,0E0,1.584366E2,0E0,5.3506525E2,4.8910486E2,1.0942349E3,1.9203105E3,4.7616776E2,4.246517E2,2.851471E1,9.970519E1,7.607727E2,5.8105005E2,1.1489197E3,7.974643E2,3.1872002E1,7.6436554E1,6.5384766E1,6.3872643E0,7.9165924E2,7.926312E2,2.7404846E2,3.6254294E2,3.756632E2,6.900016E2,8.606377E2,1.8056034E3,3.7647278E2,6.8997205E2,1.1821283E2,4.7130005E2,0E0,0E0,0E0,0E0,0E0,0E0,0E0,0E0,0E0,0E0,0E0,0E0,0E0,0E0,0E0,0E0,0E0,0E0,0E0,0E0,0E0,0E0,0E0,0E0,0E0,0E0,0E0,0E0,0E0,0E0,0E0,0E0,0E0,0E0,0E0,0E0,0E0,0E0,0E0,0E0,0E0,0E0,0E0,0E0],"parents":[2147483647,0,0,1,1,2,2,3,3,4,4,5,5,6,6,7,7,8,8,10,10,11,11,12,12,13,13,14,14,15,15,17,17,18,18,19,19,21,21,23,23,24,24,25,25,26,26,27,27,28,28,29,29,30,30,31,31,32,32,33,33,34,34,35,35,36,36,37,37,38,38,39,39,40,40,41,41,42,42,43,43,44,44,45,45,46,46,47,47,48,48,49,49,50,50],"right_children":[2,4,6,8,10,12,14,16,18,-1,20,22,24,26,28,30,-1,32,34,36,-1,38,-1,40,42,44,46,48,50,52,54,56,58,60,62,64,66,68,70,72,74,76,78,80,82,84,86,88,90,92,94,-1,-1,-1,-1,-1,-1,-1,-1,-1,-1,-1,-1,-1,-1,-1,-1,-1,-1,-1,-1,-1,-1,-1,-1,-1,-1,-1,-1,-1,-1,-1,-1,-1,-1,-1,-1,-1,-1,-1,-1,-1,-1,-1,-1],"split_conditions":[1.4113652E1,1.4039999E1,1.2221326E2,-2.7055833E0,1.40807495E1,-3.8891664E-1,1.3538449E2,1.8486447E2,1.0831916E1,5.3170395E0,2.1316168E1,-1.6993332E0,1.945333E1,1.7227419E1,3.7996628E1,1.105194E2,4.984495E0,1.0525666E1,1.1836083E1,1.711733E1,-1.737843E0,2.1915691E1,4.907097E0,1.1500667E1,3E0,1.4654254E1,1E0,3.217522E1,1.7192593E2,-5.830583E0,-3.3430834E0,3.452792E2,1.1242717E2,1.1085428E1,1.5033334E2,3.452792E2,3.3848587E2,1.8971008E1,-2.7055833E0,4E-1,1.2853667E1,1.5284E1,2.0767975E1,1.8138166E1,1.282205E2,-1.9951668E0,1.8089775E1,-1.0650834E0,1.5000001E0,9.195333E0,2.600042E2,1.248673E0,3.2388923E0,1.5453328E0,-7.0951E-1,3.85573E-1,-1.3610712E0,-6.4888005E-3,5.89476E0,3.5968049E0,-2.7065783E0,5.3127766E-1,-2.678521E-1,-1.4624867E0,2.7138293E-1,3.2828038E0,6.133538E-1,-5.3491976E-2,-2.1818304E0,2.663647E-1,1.5696145E0,1.642056E0,-1.2597846E0,-4.5422626E0,-7.799282E-1,-2.9196515E0,-3.6688587E-1,-2.3315134E0,7.5166005E-1,4.021261E0,-1.3387316E0,1.1765397E-1,-2.2539783E0,-1.9291572E-1,2.6565106E0,7.6542473E0,-1.828112E0,5.6492794E-1,-8.8385075E-2,8.403593E-1,-2.2310327E-1,-3.951208E0,-1.172412E0,1.269809E0,-6.603494E-1],"split_indices":[2,2,3,0,0,0,3,3,0,0,0,0,2,2,2,3,0,0,0,0,0,2,0,0,1,2,1,2,3,0,0,3,3,3,3,3,3,2,0,1,0,0,2,0,3,0,2,0,1,0,3,0,0,0,0,0,0,0,0,0,0,0,0,0,0,0,0,0,0,0,0,0,0,0,0,0,0,0,0,0,0,0,0,0,0,0,0,0,0,0,0,0,0,0,0],"split_type":[0,0,0,0,0,0,0,0,0,0,0,0,0,0,0,0,0,0,0,0,0,0,0,0,0,0,0,0,0,0,0,0,0,0,0,0,0,0,0,0,0,0,0,0,0,0,0,0,0,0,0,0,0,0,0,0,0,0,0,0,0,0,0,0,0,0,0,0,0,0,0,0,0,0,0,0,0,0,0,0,0,0,0,0,0,0,0,0,0,0,0,0,0,0,0],"sum_hessian":[4.096E3,9.12E2,3.184E3,8.94E2,1.8E1,1.21E2,3.063E3,1.5E1,8.79E2,8E0,1E1,9E0,1.12E2,1.48E2,2.915E3,1.3E1,2E0,3.81E2,4.98E2,8E0,2E0,7E0,2E0,7.3E1,3.9E1,5.2E1,9.6E1,2.802E3,1.13E2,7E0,6E0,3.74E2,7E0,3E1,4.68E2,3E0,5E0,5E0,2E0,3.2E1,4.1E1,2.5E1,1.4E1,5E0,4.7E1,7.6E1,2E1,2.579E3,2.23E2,7E0,1.06E2,3E0,4E0,4E0,2E0,3.51E2,2.3E1,2E0,5E0,2E0,2.8E1,1.85E2,2.83E2,2E0,1E0,3E0,2E0,2E0,3E0,1E0,1E0,1.7E1,1.5E1,5E0,3.6E1,2E1,5E0,4E0,1E1,4E0,1E0,1.7E1,3E1,1.1E1,6.5E1,1E0,1.9E1,8.1E1,2.498E3,1.28E2,9.5E1,3E0,4E0,1.2E1,9.4E1],"tree_param":{"num_deleted":"0","num_feature":"4","num_nodes":"95","size_leaf_vector":"1"}},{"base_weights":[2.3118583E-2,3.199071E0,-2.669743E-3,-4.9828568E0,4.183359E0,1.0901756E0,-6.1588656E-2,-2.9089935E0,1.3737763E0,9.868283E0,2.6516428E0,2.7579284E-1,5.249788E0,-4.5064363E0,-2.7917068E-2,-1.2919235E-1,3.604259E0,-1.5276464E0,4.7082286E0,8.87949E-1,-9.913579E0,1.1177754E1,-6.405027E-1,8.4551954E-1,-1.1158499E1,-2.0860713E0,2.216848E-2,-4.378183E0,3.1300697E0,7.8068285E0,-8.336043E-1,-6.853103E-1,6.3916183E0,-3.8031356E0,-1.5263395E1,1.2504569E1,-1.5076916E0,-3.6970503E0,8.045931E0,3.6345587E0,-1.4647834E0,-1.4580345E1,5.1077704E0,1.1427333E1,-3.0046103E0,4.4642738E-1,-2.1517108E-1,-1.8781158E0,-1.2275544E-1,1.1841134E0,1.0187188E-1,6.5889394E-1,4.2300553E0,-1.5550278E0,5.829029E-1,1.4974253E-1,-4.484595E0,6.1173625E0,3.4904796E-1,2.810795E-1,-1.4815606E0,-5.8785768E0,-1.7531209E0,-5.758536E-1,4.078243E0,-2.8710055E0,-1.1725846E-1,4.5358653E0,-5.1289946E-1,-8.72297E-1,1.5827782E0,-6.020468E0,-1.1943733E0,2.2178204E0,8.067627E-2,4.023276E0,2.2640993E-1,-1.3410652E0,1.4556298E0,4.462404E-1,1.1903784E-2,-1.9137295E0,-2.9989192E-2],"categories":[],"categories_nodes":[],"categories_segments":[],"categories_sizes":[],"default_left":[0,0,0,0,0,0,0,0,0,0,0,0,0,0,0,0,0,0,0,0,0,0,0,0,0,0,0,0,0,0,0,0,0,0,0,0,0,0,0,0,0,0,0,0,0,0,0,0,0,0,0,0,0,0,0,0,0,0,0,0,0,0,0,0,0,0,0,0,0,0,0,0,0,0,0,0,0,0,0,0,0,0,0],"id":13,"left_children":[1,3,5,7,9,11,13,-1,-1,15,17,19,21,23,25,-1,-1,27,29,31,33,35,37,39,41,43,45,47,49,51,53,55,57,59,61,63,-1,65,67,-1,69,71,73,75,77,79,81,-1,-1,-1,-1,-1,-1,-1,-1,-1,-1,-1,-1,-1,-1,-1,-1,-1,-1,-1,-1,-1,-1,-1,-1,-1,-1,-1,-1,-1,-1,-1,-1,-1,-1,-1,-1],"loss_changes":[3.3556305E2,2.8660638E2,2.6180948E2,2.246985E2,2.350636E2,7.031556E2,5.7728204E2,0E0,0E0,1.377774E2,2.2206918E2,1.1003629E3,1.1943527E3,1.0418796E3,3.9485712E2,0E0,0E0,1.3319693E2,2.9843048E2,1.4417242E3,2.6884888E2,4.2832446E2,5.076552E2,4.6036438E2,7.980619E2,1.1638801E3,3.7668948E2,4.2261116E1,7.7787514E0,3.5743024E2,9.4615875E1,2.203713E3,2.684364E3,3.6918297E1,8.951367E1,2.7755176E2,0E0,2.6809943E2,3.7088623E2,0E0,1.6123044E2,5.599363E2,3.1181732E1,1.1689935E2,1.01196716E3,5.681992E2,1.7029601E3,0E0,0E0,0E0,0E0,0E0,0E0,0E0,0E0,0E0,0E0,0E0,0E0,0E0,0E0,0E0,0E0,0E0,0E0,0E0,0E0,0E0,0E0,0E0,0E0,0E0,0E0,0E0,0E0,0E0,0E0,0E0,0E0,0E0,0E0,0E0,0E0],"parents":[2147483647,0,0,1,1,2,2,3,3,4,4,5,5,6,6,9,9,10,10,11,11,12,12,13,13,14,14,17,17,18,18,19,19,20,20,21,21,22,22,23,23,24,24,25,25,26,26,27,27,28,28,29,29,30,30,31,31,32,32,33,33,34,34,35,35,37,37,38,38,40,40,41,41,42,42,43,43,44,44,45,45,46,46],"right_children":[2,4,6,8,10,12,14,-1,-1,16,18,20,22,24,26,-1,-1,28,30,32,34,36,38,40,42,44,46,48,50,52,54,56,58,60,62,64,-1,66,68,-1,70,72,74,76,78,80,82,-1,-1,-1,-1,-1,-1,-1,-1,-1,-1,-1,-1,-1,-1,-1,-1,-1,-1,-1,-1,-1,-1,-1,-1,-1,-1,-1,-1,-1,-1,-1,-1,-1,-1,-1,-1],"split_conditions":[-4.374333E0,7.4256836E1,9.565437E0,-5.830583E0,1.2397806E1,9.000001E-1,9.826088E0,-2.9089935E0,1.3737763E0,9.826088E0,1.886139E1,3.441255E2,1.5595333E1,2.0844853E2,3.3571365E1,-1.2919235E-1,3.604259E0,1E-1,2.5862436E1,2.671787E2,8.12197E0,8.7E0,8.714677E0,1.1085428E1,3.285371E2,-1.4826669E0,2.2590355E2,3.268024E2,1.7709658E1,2.2768398E1,2.8202042E1,2.4196078E2,2.9948785E2,2.7152498E0,4.31525E0,2.1914925E1,-1.5076916E0,2E0,1.8938166E1,3.6345587E0,8E-1,1.3567334E1,5.2807493E0,6E-1,2E0,5.761083E0,2.3552771E2,-1.8781158E0,-1.2275544E-1,1.1841134E0,1.0187188E-1,6.5889394E-1,4.2300553E0,-1.5550278E0,5.829029E-1,1.4974253E-1,-4.484595E0,6.1173625E0,3.4904796E-1,2.810795E-1,-1.4815606E0,-5.8785768E0,-1.7531209E0,-5.758536E-1,4.078243E0,-2.8710055E0,-1.1725846E-1,4.5358653E0,-5.1289946E-1,-8.72297E-1,1.5827782E0,-6.020468E0,-1.1943733E0,2.2178204E0,8.067627E-2,4.023276E0,2.2640993E-1,-1.3410652E0,1.4556298E0,4.462404E-1,1.1903784E-2,-1.9137295E0,-2.9989192E-2],"split_indices":[0,3,2,0,2,1,2,0,0,2,2,3,0,3,3,0,0,1,2,3,2,1,2,3,3,0,3,3,2,2,2,3,3,0,0,3,0,1,0,0,1,0,0,1,1,0,3,0,0,0,0,0,0,0,0,0,0,0,0,0,0,0,0,0,0,0,0,0,0,0,0,0,0,0,0,0,0,0,0,0,0,0,0],"split_type":[0,0,0,0,0,0,0,0,0,0,0,0,0,0,0,0,0,0,0,0,0,0,0,0,0,0,0,0,0,0,0,0,0,0,0,0,0,0,0,0,0,0,0,0,0,0,0,0,0,0,0,0,0,0,0,0,0,0,0,0,0,0,0,0,0,0,0,0,0,0,0,0,0,0,0,0,0,0,0,0,0,0,0],"sum_hessian":[4.096E3,3.2E1,4.064E3,3E0,2.9E1,2.07E2,3.857E3,2E0,1E0,5E0,2.4E1,1.74E2,3.3E1,2.8E1,3.829E3,1E0,4E0,8E0,1.6E1,1.65E2,9E0,1.6E1,1.7E1,1.6E1,1.2E1,9E1,3.739E3,5E0,3E0,1E1,6E0,1.29E2,3.6E1,5E0,4E0,1.5E1,1E0,1.3E1,4E0,2E0,1.4E1,1E1,2E0,5E0,8.5E1,1.341E3,2.398E3,3E0,2E0,2E0,1E0,6E0,4E0,2E0,4E0,1.2E2,9E0,9E0,2.7E1,1E0,4E0,2E0,2E0,1E0,1.4E1,4E0,9E0,2E0,2E0,1.2E1,2E0,6E0,4E0,1E0,1E0,4E0,1E0,7.2E1,1.3E1,3.76E2,9.65E2,4.3E1,2.355E3],"tree_param":{"num_deleted":"0","num_feature":"4","num_nodes":"83","size_leaf_vector":"1"}},{"base_weights":[1.7104236E-2,4.3648295E-4,3.794178E0,3.9006975E0,-1.5878692E-2,2.0841959E0,2.700395E0,1.663224E1,1.0943424E0,-5.2567225E0,3.5357603E-3,-1.9568405E0,4.5718303E0,2.676487E-1,7.21686E0,2.7960188E0,-4.284273E0,-1.043233E1,4.2454114E0,-7.941102E-2,7.341819E-1,8.36113E-1,-1.9692982E0,1.4540973E0,2.7303374E-1,-1.888345E0,4.194654E0,-2.2805982E0,-6.4436847E-1,2.2108011E0,-1.5803914E1,1.2459404E0,2.8864152E0,-3.4369502E-2,-9.671233E0,-4.39809E-1,3.1549914E0,7.927094E-2,3.827614E-1,1.6989381E0,-1.5735112E0,-3.947834E-1,1.04817584E-1,-5.576151E0,-1.4908295E0,1.6250943E0,-3.4531948E-1,-2.0491088E-2,2.1497035E0,8.6785185E-1,-3.7710497E0,4.7134307E-1,-4.361197E-1,4.0418754E0,7.196872E-1],"categories":[],"categories_nodes":[],"categories_segments":[],"categories_sizes":[],"default_left":[0,0,0,0,0,0,0,0,0,0,0,0,0,0,0,0,0,0,0,0,0,0,0,0,0,0,0,0,0,0,0,0,0,0,0,0,0,0,0,0,0,0,0,0,0,0,0,0,0,0,0,0,0,0,0],"id":14,"left_children":[1,3,5,7,9,-1,11,13,15,17,19,21,23,-1,-1,25,27,29,31,33,35,37,-1,-1,-1,-1,39,-1,41,-1,43,45,-1,47,49,51,53,-1,-1,-1,-1,-1,-1,-1,-1,-1,-1,-1,-1,-1,-1,-1,-1,-1,-1],"loss_changes":[2.579263E2,2.5968637E2,4.3318848E1,5.8919556E2,4.1352292E2,0E0,1.3968204E2,3.29099E2,1.4926886E2,7.819794E2,2.4550754E2,6.9831E1,6.671875E0,0E0,0E0,1.7897473E2,4.3406265E1,1.0726958E3,8.476277E1,1.5713936E3,1.175137E3,6.68818E-1,0E0,0E0,0E0,0E0,1.8218456E2,0E0,2.461938E0,0E0,1.4887329E2,5.6225323E1,0E0,8.854428E2,6.555442E2,5.711514E2,1.02077405E3,0E0,0E0,0E0,0E0,0E0,0E0,0E0,0E0,0E0,0E0,0E0,0E0,0E0,0E0,0E0,0E0,0E0,0E0],"parents":[2147483647,0,0,1,1,2,2,3,3,4,4,6,6,7,7,8,8,9,9,10,10,11,11,12,12,15,15,16,16,17,17,18,18,19,19,20,20,21,21,26,26,28,28,30,30,31,31,33,33,34,34,35,35,36,36],"right_children":[2,4,6,8,10,-1,12,14,16,18,20,22,24,-1,-1,26,28,30,32,34,36,38,-1,-1,-1,-1,40,-1,42,-1,44,46,-1,48,50,52,54,-1,-1,-1,-1,-1,-1,-1,-1,-1,-1,-1,-1,-1,-1,-1,-1,-1,-1],"split_conditions":[2.8271498E1,6.6818557E0,1.4780428E2,7.93521E1,7.2805495E0,2.0841959E0,1.6332152E2,5.3995E0,1.711733E1,1.7487189E2,3.3262244E2,1.5691818E2,3.293269E2,2.676487E-1,7.21686E0,-1.2368333E0,1.7629833E1,7.4256836E1,2.1000001E0,3.3179843E2,4E-1,2.1129883E1,-1.9692982E0,1.4540973E0,2.7303374E-1,-1.888345E0,2.683224E2,-2.2805982E0,2.09715E1,2.2108011E0,1.5595333E1,2.0656502E2,2.8864152E0,3.310003E2,1.4764389E1,7.559E0,5E-1,7.927094E-2,3.827614E-1,1.6989381E0,-1.5735112E0,-3.947834E-1,1.04817584E-1,-5.576151E0,-1.4908295E0,1.6250943E0,-3.4531948E-1,-2.0491088E-2,2.1497035E0,8.6785185E-1,-3.7710497E0,4.7134307E-1,-4.361197E-1,4.0418754E0,7.196872E-1],"split_indices":[0,2,3,3,2,0,3,0,0,3,3,3,3,0,0,0,0,3,1,3,1,2,0,0,0,0,3,0,0,0,0,3,0,3,2,0,1,0,0,0,0,0,0,0,0,0,0,0,0,0,0,0,0,0,0],"split_type":[0,0,0,0,0,0,0,0,0,0,0,0,0,0,0,0,0,0,0,0,0,0,0,0,0,0,0,0,0,0,0,0,0,0,0,0,0,0,0,0,0,0,0,0,0,0,0,0,0,0,0,0,0,0,0],"sum_hessian":[4.096E3,4.079E3,1.7E1,1.6E1,4.063E3,3E0,1.4E1,2E0,1.4E1,1.4E1,4.049E3,4E0,1E1,1E0,1E0,1.1E1,3E0,9E0,5E0,3.637E3,4.12E2,3E0,1E0,9E0,1E0,1E0,1E1,1E0,2E0,2E0,7E0,4E0,1E0,3.621E3,1.6E1,2.78E2,1.34E2,2E0,1E0,9E0,1E0,1E0,1E0,5E0,2E0,1E0,3E0,3.605E3,1.6E1,3E0,1.3E1,9.3E1,1.85E2,8E0,1.26E2],"tree_param":{"num_deleted":"0","num_feature":"4","num_nodes":"55","size_leaf_vector":"1"}},{"base_weights":[1.411863E-2,5.4393906E-2,-1.3935202E0,2.5556263E-1,-1.9559762E-1,-1.666478E0,2.7784238E0,1.19536795E-1,2.8242712E0,-3.6333694E0,-1.001013E-1,-6.6385067E-1,-6.2453713E0,1.9632073E-1,-4.6912246E0,1.9405373E0,1.5676812E1,-7.260291E0,2.9606447E-1,-1.6205788E-1,5.8016615E0,-7.0067396E0,-6.609526E-2,-3.3790565E0,-9.373195E0,3.2328945E-1,-1.666413E0,1.4769201E0,-7.8424296E0,-8.272501E0,2.8681333E0,1.9953308E1,-1.4973247E0,-1.0816469E1,2.636333E-1,1.7016495E1,-1.9974517E0,4.1627436E0,-2.4424076E-1,1.29636E1,6.555453E-2,-3.092829E0,-2.9632401E0,-2.2538238E0,1.4794797E0,-5.554447E0,7.7738E-1,-9.993019E-1,-3.1871028E0,2.8431297E-3,4.2257872E-1,-7.050793E-1,1.8208839E0,-1.029465E0,2.7105265E0,-3.5851748E0,-1.7417654E-1,-3.5079126E0,7.3987854E-1,3.0312073E0,5.4753715E-1,7.093316E0,2.2468872E-1,-1.0699768E-1,-3.9097147E0,2.139355E0,-1.3076016E0,1.588662E0,6.068761E0,-2.3108466E0,5.438884E-1,5.8933234E-1,5.7179255E0,1.8923129E-1,-1.932104E-1,6.543425E0,9.8778826E-1,-9.896197E-1,1.4287333E0,8.7861216E-1,-1.5505211E0,1.0488145E0,-1.206451E0,-1.412093E-1,1.6222568E0,-4.0546343E-1,-2.0190473E0,1.4748551E0,-1.0861651E0],"categories":[],"categories_nodes":[],"categories_segments":[],"categories_sizes":[],"default_left":[0,0,0,0,0,0,0,0,0,0,0,0,0,0,0,0,0,0,0,0,0,0,0,0,0,0,0,0,0,0,0,0,0,0,0,0,0,0,0,0,0,0,0,0,0,0,0,0,0,0,0,0,0,0,0,0,0,0,0,0,0,0,0,0,0,0,0,0,0,0,0,0,0,0,0,0,0,0,0,0,0,0,0,0,0,0,0,0,0],"id":15,"left_children":[1,3,5,7,9,11,-1,13,15,17,19,21,23,25,27,29,31,33,35,37,39,41,43,45,47,49,51,53,55,57,59,61,-1,63,65,67,69,71,73,75,77,-1,79,81,83,85,87,-1,-1,-1,-1,-1,-1,-1,-1,-1,-1,-1,-1,-1,-1,-1,-1,-1,-1,-1,-1,-1,-1,-1,-1,-1,-1,-1,-1,-1,-1,-1,-1,-1,-1,-1,-1,-1,-1,-1,-1,-1,-1],"loss_changes":[2.323472E2,2.0040726E2,3.469855E2,7.711614E2,5.830158E2,5.100374E2,0E0,7.7589954E2,1.2303417E3,6.862336E2,6.3351996E2,3.5214603E2,1.4763391E2,4.891663E2,6.530066E2,1.01845166E3,7.1829175E2,6.7176196E2,9.5435547E2,6.0985913E2,7.386199E2,7.62861E1,2.9412613E2,1.1282039E2,3.261328E1,6.590138E2,7.1258374E2,4.7619278E2,6.493822E2,3.5942944E2,7.1362805E2,4.0759937E2,0E0,3.8937805E2,3.1677768E2,5.843445E0,4.9224084E2,1.0104985E3,5.888107E2,6.127191E2,1.8952856E2,0E0,8.010028E1,3.7996082E2,3.9322467E2,3.0435059E1,1.08810135E2,0E0,0E0,0E0,0E0,0E0,0E0,0E0,0E0,0E0,0E0,0E0,0E0,0E0,0E0,0E0,0E0,0E0,0E0,0E0,0E0,0E0,0E0,0E0,0E0,0E0,0E0,0E0,0E0,0E0,0E0,0E0,0E0,0E0,0E0,0E0,0E0,0E0,0E0,0E0,0E0,0E0,0E0],"parents":[2147483647,0,0,1,1,2,2,3,3,4,4,5,5,7,7,8,8,9,9,10,10,11,11,12,12,13,13,14,14,15,15,16,16,17,17,18,18,19,19,20,20,21,21,22,22,23,23,24,24,25,25,26,26,27,27,28,28,29,29,30,30,31,31,33,33,34,34,35,35,36,36,37,37,38,38,39,39,40,40,42,42,43,43,44,44,45,45,46,46],"right_children":[2,4,6,8,10,12,-1,14,16,18,20,22,24,26,28,30,32,34,36,38,40,42,44,46,48,50,52,54,56,58,60,62,-1,64,66,68,70,72,74,76,78,-1,80,82,84,86,88,-1,-1,-1,-1,-1,-1,-1,-1,-1,-1,-1,-1,-1,-1,-1,-1,-1,-1,-1,-1,-1,-1,-1,-1,-1,-1,-1,-1,-1,-1,-1,-1,-1,-1,-1,-1,-1,-1,-1,-1,-1,-1],"split_conditions":[3.7996628E1,1.3316167E1,3.285371E2,1.2586083E1,1.3648585E1,2.9625104E2,2.7784238E0,1.2388167E1,7.7000003E0,1.7106628E1,3.5105072E1,1.7192593E2,4.2095375E1,6.7999997E0,1.8626305E1,1.3410492E2,3.0244286E1,1.3567334E1,1.945333E1,1.3869415E1,2.6254376E2,9.195333E0,4.0737305E1,1.8E0,2.9805743E2,8.856915E0,3.374286E2,1.6394829E1,3.3999996E0,1.6000001E0,1.4780428E2,1.3E1,-1.4973247E0,1.4091394E2,1.5463244E1,1E-1,1.3438167E1,2.9808346E1,1.5273505E1,4E-1,1.9397415E1,-3.092829E0,1E-1,3E-1,9.815251E0,3.00766E2,8.725666E0,-9.993019E-1,-3.1871028E0,2.8431297E-3,4.2257872E-1,-7.050793E-1,1.8208839E0,-1.029465E0,2.7105265E0,-3.5851748E0,-1.7417654E-1,-3.5079126E0,7.3987854E-1,3.0312073E0,5.4753715E-1,7.093316E0,2.2468872E-1,-1.0699768E-1,-3.9097147E0,2.139355E0,-1.3076016E0,1.588662E0,6.068761E0,-2.3108466E0,5.438884E-1,5.8933234E-1,5.7179255E0,1.8923129E-1,-1.932104E-1,6.543425E0,9.8778826E-1,-9.896197E-1,1.4287333E0,8.7861216E-1,-1.5505211E0,1.0488145E0,-1.206451E0,-1.412093E-1,1.6222568E0,-4.0546343E-1,-2.0190473E0,1.4748551E0,-1.0861651E0],"split_indices":[2,0,3,0,0,3,0,0,1,2,2,3,2,1,2,3,2,0,2,0,3,0,2,1,3,0,3,2,1,1,3,1,0,3,2,1,0,2,2,1,0,0,1,1,0,3,0,0,0,0,0,0,0,0,0,0,0,0,0,0,0,0,0,0,0,0,0,0,0,0,0,0,0,0,0,0,0,0,0,0,0,0,0,0,0,0,0,0,0],"split_type":[0,0,0,0,0,0,0,0,0,0,0,0,0,0,0,0,0,0,0,0,0,0,0,0,0,0,0,0,0,0,0,0,0,0,0,0,0,0,0,0,0,0,0,0,0,0,0,0,0,0,0,0,0,0,0,0,0,0,0,0,0,0,0,0,0,0,0,0,0,0,0,0,0,0,0,0,0,0,0,0,0,0,0,0,0,0,0,0,0],"sum_hessian":[4.096E3,3.983E3,1.13E2,2.207E3,1.776E3,1.11E2,2E0,2.097E3,1.1E2,4.7E1,1.729E3,9.2E1,1.9E1,2.065E3,3.2E1,1.04E2,6E0,2.4E1,2.3E1,1.712E3,1.7E1,7E0,8.5E1,1.1E1,8E0,1.934E3,1.31E2,1.1E1,2.1E1,8E0,9.6E1,5E0,1E0,1.6E1,8E0,2E0,2.1E1,3.1E1,1.681E3,7E0,1E1,3E0,4E0,3.5E1,5E1,7E0,4E0,2E0,6E0,1.501E3,4.33E2,1.21E2,1E1,7E0,4E0,1.3E1,8E0,6E0,2E0,1.1E1,8.5E1,4E0,1E0,3E0,1.3E1,3E0,5E0,1E0,1E0,8E0,1.3E1,2.8E1,3E0,5.27E2,1.154E3,3E0,4E0,6E0,4E0,1E0,3E0,8E0,2.7E1,3.4E1,1.6E1,2E0,5E0,2E0,2E0],"tree_param":{"num_deleted":"0","num_feature":"4","num_nodes":"89","size_leaf_vector":"1"}},{"base_weights":[1.4078199E-2,2.2406564E0,-4.0008062E-3,-3.8585663E0,2.9791975E0,-1.5941662E0,2.1833923E-2,-2.323665E0,1.1703576E0,7.501686E0,1.7746322E0,-2.3995168E0,6.725034E0,1.649512E0,-5.0446414E-3,-1.0716477E-1,2.743473E0,-1.3246375E0,3.311032E0,-1.3330835E0,-9.164698E0,2.3429742E0,1.9509545E-1,-2.1168318E0,6.1141405E0,-7.9224052E0,2.9283382E-2,7.0484924E-1,-5.618561E0,-2.627466E-1,6.516918E0,-5.3324594E0,1.677198E0,-5.189001E0,-8.2618177E-1,-9.018752E-2,-7.3139567E0,9.57747E0,-4.607197E0,2.872345E0,-1.0440734E1,4.1362042E0,-5.5733104E-3,-3.234356E-1,1.7103986E0,-5.283909E-1,-1.9999615E0,-9.3939E-1,1.231731E0,4.5706445E-1,2.6279037E0,-3.8186067E-1,-3.4517846E0,2.7334971E0,-3.9145792E-1,1.2317669E0,-1.6448578E0,-9.721076E-1,2.3382778E0,7.7750134E0,2.036167E0,1.2323747E0,-2.4590662E0,1.8126749E0,-9.956051E-1,-3.6860309E0,-8.2618624E-1,9.9284075E-2,3.51499E0,-8.1064004E-1,8.648525E-3],"categories":[],"categories_nodes":[],"categories_segments":[],"categories_sizes":[],"default_left":[0,0,0,0,0,0,0,0,0,0,0,0,0,0,0,0,0,0,0,0,0,0,0,0,0,0,0,0,0,0,0,0,0,0,0,0,0,0,0,0,0,0,0,0,0,0,0,0,0,0,0,0,0,0,0,0,0,0,0,0,0,0,0,0,0,0,0,0,0,0,0],"id":16,"left_children":[1,3,5,7,9,11,13,-1,-1,15,17,19,21,23,25,-1,-1,27,29,31,33,-1,-1,35,37,39,41,43,45,47,49,51,53,-1,55,57,-1,59,61,63,65,67,69,-1,-1,-1,-1,-1,-1,-1,-1,-1,-1,-1,-1,-1,-1,-1,-1,-1,-1,-1,-1,-1,-1,-1,-1,-1,-1,-1,-1],"loss_changes":[1.649309E2,1.6014482E2,1.6703108E2,1.5086507E2,1.5011624E2,4.516286E2,1.7505067E2,0E0,0E0,8.0750336E1,1.2342884E2,4.2065952E2,3.4463074E1,1.105939E3,1.0702588E3,0E0,0E0,8.239038E1,1.9648347E2,6.470238E2,5.281782E2,0E0,0E0,1.6220933E3,1.1580707E3,4.9212964E2,5.613286E2,6.8506645E1,3.8516998E-1,1.25638306E2,8.744458E1,5.617768E2,6.9915894E2,0E0,1.3734734E2,8.6972626E2,0E0,8.726792E2,2.839485E2,9.855217E1,1.6482361E2,9.4802325E2,3.6084613E2,0E0,0E0,0E0,0E0,0E0,0E0,0E0,0E0,0E0,0E0,0E0,0E0,0E0,0E0,0E0,0E0,0E0,0E0,0E0,0E0,0E0,0E0,0E0,0E0,0E0,0E0,0E0,0E0],"parents":[2147483647,0,0,1,1,2,2,3,3,4,4,5,5,6,6,9,9,10,10,11,11,12,12,13,13,14,14,17,17,18,18,19,19,20,20,23,23,24,24,25,25,26,26,27,27,28,28,29,29,30,30,31,31,32,32,34,34,35,35,37,37,38,38,39,39,40,40,41,41,42,42],"right_children":[2,4,6,8,10,12,14,-1,-1,16,18,20,22,24,26,-1,-1,28,30,32,34,-1,-1,36,38,40,42,44,46,48,50,52,54,-1,56,58,-1,60,62,64,66,68,70,-1,-1,-1,-1,-1,-1,-1,-1,-1,-1,-1,-1,-1,-1,-1,-1,-1,-1,-1,-1,-1,-1,-1,-1,-1,-1,-1,-1],"split_conditions":[-4.374333E0,7.4256836E1,-1.9951668E0,-5.830583E0,1.2397806E1,1.3000002E0,-1.0650834E0,-2.323665E0,1.1703576E0,9.826088E0,1.886139E1,2.6729847E1,1.8391737E1,2E-1,-8.9725E-1,-1.0716477E-1,2.743473E0,1.8391737E1,-5.830583E0,1.603213E1,3.0631746E1,2.3429742E0,1.9509545E-1,3.3848587E2,1.6E0,1.282205E2,-5.305834E-1,3.3686008E2,1.879255E1,3.3686008E2,1.2693954E2,1.3849477E1,1.835647E1,-5.189001E0,3.1722925E1,2.3469128E1,-7.3139567E0,7.93521E1,1.6394829E1,1E-1,2.0767975E1,2E-1,-4.0999997E-2,-3.234356E-1,1.7103986E0,-5.283909E-1,-1.9999615E0,-9.3939E-1,1.231731E0,4.5706445E-1,2.6279037E0,-3.8186067E-1,-3.4517846E0,2.7334971E0,-3.9145792E-1,1.2317669E0,-1.6448578E0,-9.721076E-1,2.3382778E0,7.7750134E0,2.036167E0,1.2323747E0,-2.4590662E0,1.8126749E0,-9.956051E-1,-3.6860309E0,-8.2618624E-1,9.9284075E-2,3.51499E0,-8.1064004E-1,8.648525E-3],"split_indices":[0,3,0,0,2,1,0,0,0,2,2,2,2,1,0,0,0,2,0,2,2,0,0,3,1,3,0,3,2,3,3,2,2,0,2,2,0,3,2,1,2,1,0,0,0,0,0,0,0,0,0,0,0,0,0,0,0,0,0,0,0,0,0,0,0,0,0,0,0,0,0],"split_type":[0,0,0,0,0,0,0,0,0,0,0,0,0,0,0,0,0,0,0,0,0,0,0,0,0,0,0,0,0,0,0,0,0,0,0,0,0,0,0,0,0,0,0,0,0,0,0,0,0,0,0,0,0,0,0,0,0,0,0,0,0,0,0,0,0,0,0,0,0,0,0],"sum_hessian":[4.096E3,3.2E1,4.064E3,3E0,2.9E1,6.4E1,4E3,2E0,1E0,5E0,2.4E1,5.9E1,5E0,6.4E1,3.936E3,1E0,4E0,8E0,1.6E1,5.2E1,7E0,4E0,1E0,3.5E1,2.9E1,1.6E1,3.92E3,6E0,2E0,8E0,8E0,2.2E1,3E1,3E0,4E0,3.3E1,2E0,2.2E1,7E0,3E0,1.3E1,3.2E1,3.888E3,5E0,1E0,1E0,1E0,5E0,3E0,3E0,5E0,1.4E1,8E0,8E0,2.2E1,2E0,2E0,2.4E1,9E0,2E0,2E1,2E0,5E0,2E0,1E0,1E1,3E0,2.2E1,1E1,4.8E1,3.84E3],"tree_param":{"num_deleted":"0","num_feature":"4","num_nodes":"71","size_leaf_vector":"1"}},{"base_weights":[1.0078535E-2,2.935012E0,-2.108171E-3,1.4129741E1,5.00399E-1,-3.9532182E0,1.246492E-2,2.2577706E-1,6.1326065E0,1.888846E0,-3.790042E0,-7.964122E0,3.3904908E0,-8.958272E-1,6.840032E-2,-1.1195831E-1,2.3785737E0,-1.9681904E0,-6.7963284E-1,1.585939E0,-1.1937576E1,8.36895E-1,2.4237707E0,-1.696841E0,2.1178808E0,1.0512915E0,-2.5441932E-2,2.19248E0,-1.8659425E0,-3.6524794E-1,5.941315E-2,-1.3318515E1,-3.4065115E-1,1.3796059E0,-1.2532244E0,3.4596329E0,-2.1341257E0,4.3207664E0,-4.484237E0,2.580559E-1,8.278742E0,-2.0613885E0,2.2189992E-2,1.0049896E0,-2.5599518E-1,-4.854433E0,-1.2322396E0,-4.3115315E-1,-1.0520497E-1,-2.3782161E-1,6.2200103E0,-2.63815E0,-4.338654E-1,2.5346223E-1,2.1283057E0,1.5155274E0,-1.709965E0,-1.6275375E-1,1.3208023E0,-4.092082E0,3.0398645E0,-8.763182E-1,3.425371E0,2.9164135E0,-7.876646E-3],"categories":[],"categories_nodes":[],"categories_segments":[],"categories_sizes":[],"default_left":[0,0,0,0,0,0,0,0,0,0,0,0,0,0,0,0,0,0,0,0,0,0,0,0,0,0,0,0,0,0,0,0,0,0,0,0,0,0,0,0,0,0,0,0,0,0,0,0,0,0,0,0,0,0,0,0,0,0,0,0,0,0,0,0,0],"id":17,"left_children":[1,3,5,7,9,11,13,-1,-1,15,17,19,21,23,25,27,-1,-1,29,-1,31,33,-1,35,37,39,41,43,-1,-1,-1,45,-1,-1,47,49,51,53,55,57,59,61,63,-1,-1,-1,-1,-1,-1,-1,-1,-1,-1,-1,-1,-1,-1,-1,-1,-1,-1,-1,-1,-1,-1],"loss_changes":[1.4604503E2,4.562616E2,2.3503279E2,2.3793652E2,9.6514565E1,4.68826E2,2.0668799E2,0E0,0E0,1.4589955E2,3.0011887E1,5.8961346E2,6.507748E1,5.733028E2,3.5347787E2,1.5438844E2,0E0,0E0,1.6573192E0,0E0,1.0421277E2,4.507615E1,0E0,4.2903973E2,7.4656085E2,1.9127095E3,3.3936496E2,3.1062305E1,0E0,0E0,0E0,1.1812915E2,0E0,0E0,1.601057E-1,1.1182511E3,7.79841E2,3.6035217E2,1.7949557E2,1.00443976E3,1.4793647E3,9.60374E2,1.6072511E3,0E0,0E0,0E0,0E0,0E0,0E0,0E0,0E0,0E0,0E0,0E0,0E0,0E0,0E0,0E0,0E0,0E0,0E0,0E0,0E0,0E0,0E0],"parents":[2147483647,0,0,1,1,2,2,3,3,4,4,5,5,6,6,9,9,10,10,11,11,12,12,13,13,14,14,15,15,18,18,20,20,21,21,23,23,24,24,25,25,26,26,27,27,31,31,34,34,35,35,36,36,37,37,38,38,39,39,40,40,41,41,42,42],"right_children":[2,4,6,8,10,12,14,-1,-1,16,18,20,22,24,26,28,-1,-1,30,-1,32,34,-1,36,38,40,42,44,-1,-1,-1,46,-1,-1,48,50,52,54,56,58,60,62,64,-1,-1,-1,-1,-1,-1,-1,-1,-1,-1,-1,-1,-1,-1,-1,-1,-1,-1,-1,-1,-1,-1],"split_conditions":[6.6818557E0,7.93521E1,7.2805495E0,5.3995E0,1.711733E1,1.7487189E2,9.7424995E1,2.2577706E-1,6.1326065E0,7.763167E0,1.7629833E1,7.4256836E1,2.1000001E0,9E-1,1.3538449E2,2.1153474E2,2.3785737E0,-1.9681904E0,2.09715E1,1.585939E0,5.8999996E0,2.0656502E2,2.4237707E0,-1.0650834E0,1.8375668E1,1.3410492E2,1.385481E2,3.1819165E0,-1.8659425E0,-3.6524794E-1,5.941315E-2,1.5595333E1,-3.4065115E-1,1.3796059E0,5.179833E0,1E-1,1.1631666E0,1.3246826E1,1.5000001E0,2.167487E1,1.0163227E1,3.9999998E0,1.3894876E2,1.0049896E0,-2.5599518E-1,-4.854433E0,-1.2322396E0,